tree
version=v4
num_class=1
num_tree_per_iteration=1
label_index=0
max_feature_idx=9
objective=binary sigmoid:1
feature_names=Pclass Name Sex Age SibSp Parch Ticket Fare Cabin Embarked
feature_infos=[1:3] [1:890] [0:1] [0.41999999999999998:80] [0:8] [0:6] [0:680] [0:512.32920000000001] [-1:146] [-1:2]
tree_sizes=2380 2519 2329 2630 2419 2519 2424 2530 2219 2220 2529 2528 2636 2322 2427 2536 2324 2217 2632 2521 2640 2651 2641 2651 2616 2633 2532 2321 2634 2643 2434 2527 2221 2330 2322 2634 2533 2528 2326 2645 2438 2526 2532 2438 2425 2844 2438 2424 2535 2316 2327 2322 2540 2326 2429 2313 2958 2306 2853 2752 2754 2632 2540 2532 2538 2525 2842 2531 2330 2424 2422 2533 2328 2309 2321

Tree=0
num_leaves=22
num_cat=0
split_feature=2 0 8 7 3 6 3 6 6 7 1 1 1 3 1 6 6 1 3 0 1
split_gain=168.593 54.9424 23.4648 13.664 11.0728 5.00561 4.15007 3.84525 3.09971 2.81211 1.32029 1.42035 2.08291 1.28204 0.988469 0.624587 0.481601 0.171654 0.153845 2.84217e-14 3.55271e-15
threshold=1.0000000180025095e-35 2.5000000000000004 28.500000000000004 21.037500000000005 15.500000000000002 644.50000000000011 36.250000000000007 95.500000000000014 256.50000000000006 9.8312500000000025 74.500000000000014 334.50000000000006 412.50000000000006 29.849558823529414 524.50000000000011 350.50000000000006 537.50000000000011 745.50000000000011 33.500000000000007 1.5000000000000002 230.50000000000003
decision_type=2 2 2 2 2 2 2 2 2 2 2 2 2 2 2 2 2 2 2 2 2
left_child=1 17 4 8 -2 7 -4 -6 -3 -10 -9 18 -13 14 -14 -16 -17 19 20 -1 -12
right_child=2 3 6 -5 5 -7 -8 10 9 -11 11 12 13 -15 15 16 -18 -19 -20 -21 -22
leaf_value=-0.37200176623719589 -0.48738543097351317 -0.42525576534626547 -0.45971423535801625 -0.54951509660076092 -0.52537328367131608 -0.51046216392077659 -0.5172399456255673 -0.5424145633862183 -0.49104011718688068 -0.44300709838262187 -0.58501776267347394 -0.53429966828388387 -0.5424145633862183 -0.58501776267347394 -0.55661562981530355 -0.58501776267347394 -0.56371616302984617 -0.38265256605900977 -0.57436696285166 -0.37200176623719583 -0.58501776267347394
leaf_weight=10.093138411641124 5.6333795785903922 4.6944829821586671 7.9806210696697217 5.6333795785903922 5.8681037276983252 4.69448298215866 5.163931280374527 4.69448298215866 7.9806210696697217 4.9292071312665939 7.5111727714538592 4.929207131266593 4.6944829821586671 9.154241815209387 7.041724473237994 6.1028278768062574 4.6944829821586609 4.69448298215866 4.69448298215866 9.3889659643173218 4.6944829821586609
leaf_count=43 24 20 34 24 25 20 22 20 34 21 32 21 20 39 30 26 20 20 20 40 20
internal_value=-0.502775 -0.426838 -0.543899 -0.481737 -0.554779 -0.560299 -0.482314 -0.56395 -0.460048 -0.4727 -0.567839 -0.570069 -0.564535 -0.569239 -0.562829 -0.568201 -0.575756 -0.37407 -0.582059 -0.372002 -0.585018
internal_weight=134.966 47.4143 87.5521 23.2377 74.4076 68.7742 13.1446 64.0797 17.6043 12.9098 58.2116 53.5171 36.617 31.6878 22.5335 17.839 10.7973 24.1766 16.9001 19.4821 12.2057
internal_count=575 202 373 99 317 293 56 273 75 55 248 228 156 135 96 76 46 103 72 83 52
is_linear=0
shrinkage=1


Tree=1
num_leaves=23
num_cat=0
split_feature=2 0 8 7 3 6 3 6 6 7 3 3 7 7 3 3 3 7 6 6 3 6
split_gain=150.801 47.083 21.557 12.2684 10.2319 4.66733 3.69521 3.60866 2.69659 2.47298 0.843185 1.52559 1.87588 1.5073 1.33941 0.788684 0.638284 0.160626 0.118429 0.000242796 2.24398e-05 1.20763e-05
threshold=1.0000000180025095e-35 2.5000000000000004 28.500000000000004 21.037500000000005 15.500000000000002 644.50000000000011 36.250000000000007 95.500000000000014 256.50000000000006 9.8312500000000025 19.500000000000004 29.349558823529414 7.8667000000000007 8.0812500000000025 25.500000000000004 29.849558823529414 41.500000000000007 13.645850000000001 441.50000000000006 344.50000000000006 28.250000000000004 450.00000000000006
decision_type=2 2 2 2 2 2 2 2 2 2 2 2 2 2 2 2 2 2 2 2 2 2
left_child=1 17 4 8 -2 7 -4 -6 -3 -10 -9 12 -12 18 -14 -15 -17 -1 19 -13 -19 -22
right_child=2 3 6 -5 5 -7 -8 10 9 -11 11 13 14 15 -16 16 -18 20 -20 -21 21 -23
leaf_value=0.11248387839282888 0.016507504037328858 0.07420427950955906 0.042399899457240237 -0.042947798222007477 -0.019612783652411588 -0.0053510178499534874 -0.011819804466299433 -0.078248464819546781 0.013062387662481169 0.05787773988101317 -0.02196735623240606 -0.078506017731402533 -0.071393996209686117 -0.037283797619133828 -0.037379080961891249 -0.070985402468975473 -0.047320280970490285 0.12257876517386337 -0.069384926119496856 -0.078047243142622735 0.12264254370209236 0.12274328904308374
leaf_weight=4.8270974755287197 5.657329559326171 4.7805896401405397 8.066265940666197 5.5689074993133536 5.8378145098686209 4.6879258751869193 5.1479386389255515 6.2274776101112357 8.0075281858444196 5.0006117820739737 5.3138547241687801 5.7806940227746981 7.1592538207769376 4.8548096418380764 4.8578809648752213 6.9170670658349973 4.8450831323862076 7.9700779467821148 5.5438668578863135 5.7550102323293686 6.7613867521285993 5.311149001121521
leaf_count=20 24 20 34 24 25 20 22 27 34 21 23 25 31 21 21 30 21 33 24 25 28 22
internal_value=0.00192742 0.072794 -0.0375142 0.0218168 -0.048093 -0.0534849 0.0212772 -0.0570613 0.0420919 0.0302904 -0.0608796 -0.0587599 -0.0467049 -0.0649601 -0.0576436 -0.054239 -0.0612372 0.120672 -0.0753908 -0.0782771 0.122644 0.122687
internal_weight=134.88 48.2273 86.6523 23.3576 73.4381 67.7807 13.2142 63.0928 17.7887 13.0081 57.255 51.0275 17.331 33.6965 12.0171 16.617 11.7622 24.8697 17.0796 11.5357 20.0426 12.0725
internal_count=575 202 373 99 317 293 56 273 75 55 248 221 75 146 52 72 51 103 74 50 83 50
is_linear=0
shrinkage=0.05


Tree=2
num_leaves=21
num_cat=0
split_feature=0 8 6 5 3 3 7 7 4 1 3 1 8 3 3 1 3 1 1 1
split_gain=46.962 13.673 13.1537 11.0728 7.44797 6.58066 5.05875 5.30517 4.21471 3.74041 3.33716 3.27299 2.45822 2.06385 1.67743 1.41193 0.788668 0.515453 0.479807 0.455506
threshold=2.5000000000000004 19.500000000000004 196.50000000000003 1.0000000180025095e-35 43.500000000000007 6.5000000000000009 23.725000000000005 15.372900000000001 1.0000000180025095e-35 346.50000000000006 32.250000000000007 524.50000000000011 69.500000000000014 26.500000000000004 27.500000000000004 696.50000000000011 23.500000000000004 663.50000000000011 441.50000000000006 195.50000000000003
decision_type=2 2 2 2 2 2 2 2 2 2 2 2 2 2 2 2 2 2 2 2
left_child=1 3 -2 8 12 -4 7 9 13 16 11 -11 -3 -1 -13 18 -7 -16 -15 -18
right_child=2 4 5 -5 -6 6 -8 -9 -10 10 -12 14 -14 15 17 -17 19 -19 -20 -21
leaf_value=-0.039327924017047738 0.035102406541518583 0.06117883457836984 0.024913454003854443 0.066946255072727154 0.019281528632962008 -0.043543167741369203 -0.078254654935266843 0.0078221916964039059 0.033676033317600197 0.0040579490606491376 -0.061220323999894834 -0.015884101139116421 0.09846363238879581 -0.0034046445900209098 -0.034871565152713002 0.019505002907393508 -0.077807030937664223 -0.058014317797513121 -0.024986143208376766 -0.055764655381243589
leaf_weight=5.0580804944038453 8.2030774354934675 8.4945056438446098 4.7175462394952765 7.9079947024583808 6.8793951123952857 5.7435773611068717 6.4510560780763617 7.4367072582244864 6.8581245988607398 9.0389764457941073 6.1626320034265509 7.8905841410160091 9.2180968672037107 5.8343269377946836 4.6025882214307767 4.9426514804363242 4.8110581338405591 5.0414615422487259 4.6106167882680893 4.5702601820230484
leaf_count=22 35 35 20 33 29 25 28 32 29 39 27 34 38 25 20 21 21 22 20 20
internal_value=0.00180993 0.0348265 -0.0246335 0.0148468 0.0634343 -0.0320059 -0.0363545 -0.0314664 -0.00024276 -0.0375711 -0.0280701 -0.0203823 0.0805828 -0.0116202 -0.0329811 -0.00251234 -0.0581351 -0.0469695 -0.0129312 -0.0670687
internal_weight=134.473 59.8038 74.6695 35.2118 24.592 66.4664 61.7489 55.2978 27.3038 47.8611 32.7362 26.5736 17.7126 20.4457 17.5346 15.3876 15.1249 9.64405 10.4449 9.38132
internal_count=575 252 323 150 102 288 268 240 117 208 142 115 73 88 76 66 66 42 45 41
is_linear=0
shrinkage=0.05


Tree=3
num_leaves=24
num_cat=0
split_feature=2 0 8 7 3 6 6 3 1 1 1 1 1 3 1 6 6 3 1 8 4 8 7
split_gain=132.446 37.6336 17.9814 10.7121 9.20193 4.47027 3.15752 3.01169 2.21567 2.50198 1.26941 1.32434 1.9531 1.21169 0.898041 0.586417 0.451265 0.144613 0.129033 0.013059 0.00639506 0.00282515 0.000458066
threshold=1.0000000180025095e-35 2.5000000000000004 28.500000000000004 21.037500000000005 15.500000000000002 644.50000000000011 95.500000000000014 36.250000000000007 614.00000000000011 363.50000000000006 74.500000000000014 334.50000000000006 412.50000000000006 29.849558823529414 524.50000000000011 350.50000000000006 537.50000000000011 33.500000000000007 745.50000000000011 13.000000000000002 1.0000000180025095e-35 71.500000000000014 9.4125000000000014
decision_type=2 2 2 2 2 2 2 2 2 2 2 2 2 2 2 2 2 2 2 2 2 2 2
left_child=1 18 4 8 -2 6 -6 -4 9 -3 -8 17 -13 14 -14 -16 -17 22 19 20 -1 -21 -12
right_child=2 3 7 -5 5 -7 10 -9 -10 -11 11 12 13 -15 15 16 -18 -19 -20 21 -22 -23 -24
leaf_value=0.11376725442877252 0.015315489697943449 0.02688322457526493 0.036082696287576141 -0.039906764448471549 -0.019542848798269369 -0.0036793046723871212 -0.032868930127490523 -0.012604799298279505 0.011086212011362485 0.070753726759690758 -0.075032431442901393 -0.025373408486903323 -0.033683075698782892 -0.075445455719360011 -0.047223517083967104 -0.075362237170949226 -0.054290191927504686 -0.064710173653614894 0.10217984768537663 0.11076412726969082 0.11122226986166761 0.10913577517330718 -0.075677936507930699
leaf_weight=4.9248014241457039 5.6834889352321616 5.9504405856132561 8.2416137456893903 5.4393527507781974 5.8351457417011252 4.6457888185977927 4.544030249118804 5.1679293513298026 4.7824416011571875 7.1612503379583359 7.1118290722370165 4.8004482239484778 4.5729363560676637 8.7092380523681623 6.7995165586471584 5.8021191358566266 4.5200445353984833 4.4871520847082129 4.9385474920272818 5.4478033035993558 4.9488306939601898 5.2121933400630951 4.4793552309274673
leaf_count=20 24 25 34 24 25 20 20 22 20 30 32 21 20 39 30 26 20 20 20 22 20 21 20
internal_value=0.00170896 0.067414 -0.0358408 0.02154 -0.0457427 -0.0509763 -0.0545398 0.0173189 0.0402183 0.0508441 -0.0581978 -0.0604421 -0.055012 -0.0596916 -0.0533673 -0.0586246 -0.0661349 -0.0723315 0.109436 0.111181 0.112492 0.109968 -0.0752819
internal_weight=134.206 48.8057 85.4006 23.3335 71.9911 66.3076 61.6618 13.4095 17.8941 13.1117 55.8267 51.2826 35.2043 30.4039 21.6946 17.1217 10.3222 16.0783 25.4722 20.5336 9.87363 10.66 11.5912
internal_count=575 202 373 99 317 293 273 56 75 55 248 228 156 135 96 76 46 72 103 83 40 43 52
is_linear=0
shrinkage=0.05


Tree=4
num_leaves=22
num_cat=0
split_feature=2 0 3 6 7 6 6 3 1 3 6 6 1 1 6 3 1 0 7 3 1
split_gain=119.57 33.5061 16.647 10.8908 9.63755 6.83931 6.16021 3.60049 2.42141 2.1937 2.17295 2.64669 1.38745 4.56349 0.644413 0.447599 0.116786 0.0121601 0.00546736 0.00178814 0.0012543
threshold=1.0000000180025095e-35 2.5000000000000004 6.5000000000000009 102.50000000000001 21.037500000000005 573.50000000000011 55.500000000000007 30.500000000000004 81.000000000000014 29.849558823529414 300.50000000000006 441.50000000000006 590.50000000000011 350.50000000000006 350.50000000000006 21.500000000000004 745.50000000000011 2.5000000000000004 26.125000000000004 29.349558823529414 470.50000000000006
decision_type=2 2 2 2 2 2 2 2 2 2 2 2 2 2 2 2 2 2 2 2 2
left_child=1 16 -2 6 10 8 -4 -7 -5 12 -3 -12 13 15 -14 -10 18 -11 -1 -20 -19
right_child=2 4 3 5 -6 7 -8 -9 9 17 11 -13 14 -15 -16 -17 -18 20 19 -21 -22
leaf_value=0.10585597893403198 0.058309159947609671 0.059026782423528913 -0.033844750843992424 -0.021211611984568168 -0.038401278279746966 -0.039180319801699885 0.034464315969962946 0.012353394308281525 -0.052767757438617335 -0.076224623877522615 -0.002925229492192683 0.046765172554100912 -0.053144606564961554 -0.014995462132557827 -0.074954430411495063 -0.073652467490942036 0.096218632527638515 -0.073972189380340031 0.10348288488286739 0.10464757263862168 -0.072809234172730997
leaf_weight=7.2245941907167497 4.5703695863485327 7.2651926726102891 6.3540825992822629 4.5131309032440177 5.3717118352651587 7.7613194137811643 6.8678472936153412 6.0169754773378372 4.4280710518360156 6.7289757132530221 5.0121663361787778 5.7586757391691208 6.7058636993169767 8.1286435574293119 6.8430611938238144 6.0992240756750107 4.9810485690832129 5.0298619568347931 5.7430057823657972 7.7328026741743088 4.301225408911705
leaf_count=29 19 30 27 20 24 34 29 26 20 30 21 24 30 36 31 28 20 23 23 31 20
internal_value=0.0016126 0.0636548 -0.0344947 -0.0398113 0.0203866 -0.0480453 0.00163693 -0.0166756 -0.0562347 -0.0595096 0.0378955 0.023642 -0.051982 -0.0431377 -0.0641599 -0.0648678 0.103092 -0.0746045 0.104746 0.104151 -0.0734361
internal_weight=133.438 49.0892 84.3487 79.7783 23.4077 66.5564 13.2219 13.7783 52.7781 48.2649 18.036 10.7708 32.2049 18.6559 13.5489 10.5273 25.6815 16.0601 20.7004 13.4758 9.33109
internal_count=575 202 373 354 99 298 56 60 238 218 75 45 145 84 61 48 103 73 83 54 43
is_linear=0
shrinkage=0.05


Tree=5
num_leaves=23
num_cat=0
split_feature=2 0 3 9 7 8 1 1 1 1 3 3 7 7 1 8 3 7 7 3 1 1
split_gain=114.773 19.5509 15.5478 12.657 10.9262 9.52844 6.19821 2.76721 0.918544 3.28465 2.41753 1.1899 1.26752 1.0357 0.901657 0.335722 0.269945 0.182954 0.141242 0.117119 0.112491 0.00291849
threshold=1.0000000180025095e-35 2.5000000000000004 8.5000000000000018 1.5000000000000002 21.037500000000005 4.0000000000000009 378.50000000000006 480.50000000000006 593.50000000000011 374.00000000000006 27.500000000000004 25.500000000000004 18.768750000000004 9.4125000000000014 786.50000000000011 60.000000000000007 29.349558823529414 7.8916500000000012 8.0812500000000025 24.250000000000004 703.50000000000011 431.00000000000006
decision_type=2 2 2 2 2 2 2 2 2 2 2 2 2 2 2 2 2 2 2 2 2 2
left_child=1 15 -2 -3 7 8 -7 -5 9 11 -11 18 17 -12 16 19 -10 -13 -4 -1 -18 -21
right_child=2 3 5 4 -6 6 -8 -9 14 10 13 12 -14 -15 -16 -17 20 -19 -20 21 -22 -23
leaf_value=0.092160724216147405 0.052269604626124844 0.082099306901621025 -0.061787824201905983 0.058697379889793039 -0.062904726750945106 0.029165694140541938 -0.033387226598750958 0.0069383431745413324 -0.05301371634802339 0.003576214160524185 -0.025426199629282616 -0.048950158231867734 -0.02494082919055355 -0.055036731818905206 -0.041137760890306629 0.085023447189691626 -0.0619917774100242 -0.063200306492562627 -0.074118992269423534 0.099748002218257553 -0.073022974034444563 0.10130913908662664
leaf_weight=6.4968404322862687 5.0850821286439887 7.7360512763261804 4.3207844942808169 4.8521110713481885 4.3965511471033105 7.6065383851528159 8.261030584573744 5.5201924443244934 4.7989038825035122 4.9805765300989178 7.0721524953842145 4.2643487751483899 4.9210556447505942 5.0703467130661011 7.4712537527084342 7.4957153350114814 4.5227052867412549 4.773932546377182 5.0203415155410767 6.248732775449751 4.7260582745075226 5.7472532838582993
leaf_count=26 21 32 20 20 20 32 35 23 22 22 32 20 22 23 34 30 21 22 23 25 22 23
internal_value=0.00330735 0.0644062 -0.0324354 0.0302897 0.00315145 -0.0379711 -0.00340083 0.031151 -0.0468268 -0.0423844 -0.0257583 -0.0546025 -0.0453596 -0.0377907 -0.0551719 0.0939496 -0.062636 -0.0564769 -0.0684151 0.0975676 -0.0676286 0.100496
internal_weight=131.389 48.4934 82.8951 22.5049 14.7689 77.81 15.8676 10.3723 61.9425 40.4235 17.1231 23.3005 13.9593 12.1425 21.5189 25.9885 14.0477 9.03828 9.34113 18.4928 9.24876 11.996
internal_count=570 199 371 95 63 350 67 43 283 184 77 107 64 55 99 104 65 42 43 74 43 48
is_linear=0
shrinkage=0.05


Tree=6
num_leaves=22
num_cat=0
split_feature=2 0 8 9 7 1 1 6 6 7 6 1 1 1 6 7 8 1 1 1 5
split_gain=104.03 17.8216 11.3589 11.2092 9.9931 5.93023 2.4593 1.84438 1.53378 2.30887 3.17184 1.64379 2.16589 1.40583 1.49359 0.530643 0.298755 0.16981 0.144169 0.111843 0.00684679
threshold=1.0000000180025095e-35 2.5000000000000004 4.0000000000000009 1.5000000000000002 21.037500000000005 378.50000000000006 480.50000000000006 604.50000000000011 237.50000000000003 8.3312500000000025 150.50000000000003 563.00000000000011 389.50000000000006 230.50000000000003 403.00000000000006 10.316650000000001 60.000000000000007 473.50000000000006 734.50000000000011 693.50000000000011 1.0000000180025095e-35
decision_type=2 2 2 2 2 2 2 2 2 2 2 2 2 2 2 2 2 2 2 2 2
left_child=1 16 7 -3 6 -4 -5 8 9 -2 -11 12 13 14 -10 18 19 -14 -13 20 -1
right_child=2 3 5 4 -6 -7 -8 -9 11 10 -12 15 17 -15 -16 -17 -18 -19 -20 -21 -22
leaf_value=0.096231308150134295 -0.062759993692652644 0.077030671482856347 0.035020513166823718 0.055243542373301847 -0.061165141600115082 -0.023901580733915649 0.006582281169248758 -0.017978105854842472 -0.062015455611084895 -0.041605567559640157 0.0089429968985732643 -0.061352645947237265 -0.028906920057775322 -0.072215240929966826 -0.022068153511429333 -0.075301119061320712 0.081040169683785065 -0.015583158929633901 -0.04907693851817068 0.086498282936669973 0.093950522240225098
leaf_weight=7.7357892692089134 4.3782006204128292 7.8302146643400201 8.3931616991758364 4.8964797258377057 4.2980238795280465 8.6931963562965375 5.5276633948087692 7.7958500832319251 4.4735769033432025 7.5017265081405622 5.2930232584476471 5.0186531990766508 5.3503169566392881 5.9353724271059027 4.9059450328350067 5.2304404228925696 7.4714554101228705 4.3240931034088135 4.5694587826728821 4.9914315193891516 5.7261105477809906
leaf_count=31 20 32 35 20 20 37 23 35 21 34 24 24 24 28 23 24 30 20 22 20 23
internal_value=0.00315216 0.0611999 -0.0312222 0.0286959 0.0029883 0.00504213 0.0294397 -0.0407877 -0.0439085 -0.0314188 -0.0206943 -0.0492964 -0.0414723 -0.0531718 -0.0411211 -0.0624906 0.0894755 -0.0229517 -0.0555023 0.0928909 0.0952612
internal_weight=130.34 48.4772 81.863 22.5524 14.7222 17.0864 10.4241 64.7767 56.9808 17.173 12.7947 39.8079 24.9893 15.3149 9.37952 14.8186 25.9248 9.67441 9.58811 18.4533 13.4619
internal_count=570 199 371 95 63 72 43 299 264 78 58 186 116 72 44 70 104 44 46 74 54
is_linear=0
shrinkage=0.05


Tree=7
num_leaves=23
num_cat=0
split_feature=2 0 3 9 7 7 1 6 1 3 3 9 7 3 7 6 6 3 3 6 1 1
split_gain=94.4874 16.3662 14.2454 9.97766 9.15127 7.38033 6.71312 2.81444 2.19363 2.08918 1.91804 1.25851 1.45795 0.789541 2.04321 0.454762 0.371002 0.175814 0.165522 0.130034 0.00614806 0.00200582
threshold=1.0000000180025095e-35 2.5000000000000004 8.5000000000000018 1.5000000000000002 21.037500000000005 26.268750000000004 294.50000000000006 621.50000000000011 480.50000000000006 35.500000000000007 32.250000000000007 1.5000000000000002 7.8667000000000007 26.500000000000004 8.0812500000000025 222.50000000000003 390.00000000000006 24.250000000000004 20.500000000000004 559.50000000000011 473.50000000000006 667.00000000000011
decision_type=2 2 2 2 2 2 2 2 2 2 2 2 2 2 2 2 2 2 2 2 2 2
left_child=1 17 -2 -3 8 7 -7 10 -5 -8 11 16 -13 18 -15 -12 -4 -1 -14 21 -17 -19
right_child=2 3 5 4 -6 6 9 -9 -10 -11 15 12 13 14 -16 20 -18 19 -20 -21 -22 -23
leaf_value=0.079885430181470818 0.050845530262472821 0.072551512433934123 -0.015670337178693806 0.052103766475287833 -0.059534943329830642 0.031526829079948269 -0.013389988793558086 -0.010759030178042087 0.0062450744910236486 -0.052165439632589954 -0.051269582167751571 -0.030313129213770159 -0.058446198639061503 -0.070672453707282284 -0.024017457149475754 -0.072124060825809175 -0.03652264942863194 0.090857243977492771 -0.071687830013562645 0.081768686354563788 -0.069574816528457248 0.092174261924887729
leaf_weight=8.9097587615251559 5.1004082560539237 7.8961047083139428 4.3153670132160169 4.9310178756713849 4.1974910050630578 6.5960058122873333 8.3951687812805158 5.3765712380409232 5.5346421003341675 5.9257531762123099 4.3380740433931342 8.1589147150516528 4.2872546166181582 4.3230522125959379 5.1331325024366379 4.6200878471136075 4.218074157834053 6.9269613474607485 5.249920517206192 4.9592188447713843 4.8458234518766403 4.961858794093132
leaf_count=36 21 32 20 20 20 28 37 24 23 26 20 38 21 21 24 22 20 28 25 20 24 20
internal_value=0.00300964 0.0583325 -0.0300383 0.0272379 0.00283646 -0.035482 -0.0102108 -0.0451162 0.0278519 -0.0294346 -0.0488488 -0.0427268 -0.0479907 -0.0555844 -0.0453466 -0.0646754 -0.0259776 0.0855659 -0.0657353 0.0885699 -0.070819 0.0914069
internal_weight=129.201 48.3171 80.8836 22.5593 14.6632 75.7832 20.9169 54.8663 10.4657 14.3209 49.4897 35.6857 27.1523 18.9934 9.45618 13.804 8.53344 25.7578 9.53718 16.848 9.46591 11.8888
internal_count=570 199 371 95 63 350 91 259 43 63 235 169 129 91 45 66 40 104 46 68 46 48
is_linear=0
shrinkage=0.05


Tree=8
num_leaves=20
num_cat=0
split_feature=2 0 3 9 7 8 1 6 1 3 3 1 7 1 3 6 8 1 4
split_gain=86.0128 15.1246 12.9783 8.91986 8.38983 7.94293 4.7665 2.2009 1.96278 1.43232 3.73189 1.07327 0.776913 0.947524 1.38624 0.444248 0.272472 0.111479 0.00110239
threshold=1.0000000180025095e-35 2.5000000000000004 8.5000000000000018 1.5000000000000002 21.037500000000005 4.0000000000000009 378.50000000000006 621.50000000000011 480.50000000000006 29.349558823529414 24.250000000000004 392.50000000000006 7.7354000000000012 563.00000000000011 32.250000000000007 362.50000000000006 60.000000000000007 693.50000000000011 1.0000000180025095e-35
decision_type=2 2 2 2 2 2 2 2 2 2 2 2 2 2 2 2 2 2 2
left_child=1 16 -2 -3 8 7 -7 9 -5 10 11 -4 -11 14 -14 -15 17 18 -1
right_child=2 3 5 4 -6 6 -8 -9 -10 12 -12 -13 13 15 -16 -17 -18 -19 -20
leaf_value=0.088171313838450671 0.047932975195320741 0.068553493006374075 -0.063841871244898693 0.04923213424136292 -0.058000366435248654 0.025428888820391328 -0.029555928624773926 -0.012763057089105443 0.0059256533073371153 -0.07053096213580734 -0.0082830867380154216 -0.036826266401308101 -0.025814582436591488 -0.048228401492375103 -0.056586699411668689 -0.068661631078072757 0.073992061178916907 0.078980553532237291 0.087242288436690935
leaf_weight=7.8517772853374534 5.1387641727924338 7.9375864416360864 7.7419836074113864 4.9569887816905958 4.0957172065973291 7.7039204835891715 8.0703331083059293 5.5771785825490943 5.5411648154258728 5.1388548016548183 7.8202045559883109 7.0007760375738144 7.4655690938234347 4.4971903860568982 7.1794726103544235 6.511674627661705 7.3471907079219809 4.9232502132654181 5.3818604648113251
leaf_count=32 21 32 38 20 20 32 35 25 23 25 37 33 35 22 35 33 30 20 22
internal_value=0.00287774 0.0557457 -0.0289278 0.025896 0.00269463 -0.0342147 -0.00270213 -0.0426495 0.026374 -0.0457735 -0.0362032 -0.0510132 -0.052786 -0.0492314 -0.0409001 -0.0603145 0.0821164 0.0854039 0.0877935
internal_weight=127.881 48.0355 79.8459 22.5315 14.5939 74.7072 15.7743 58.9329 10.4982 53.3557 22.563 14.7428 30.7928 25.6539 14.645 11.0089 25.5041 18.1569 13.2336
internal_count=570 199 371 95 63 350 67 283 43 258 108 71 150 125 70 55 104 74 54
is_linear=0
shrinkage=0.05


Tree=9
num_leaves=20
num_cat=0
split_feature=2 0 3 9 7 8 1 6 1 3 3 1 7 1 3 6 8 1 5
split_gain=78.4375 14.0531 11.8353 8.00361 7.69947 7.41799 4.31494 2.08217 1.76095 1.37743 3.51145 1.04288 0.756141 0.924966 1.32495 0.441094 0.254594 0.107893 0.00334024
threshold=1.0000000180025095e-35 2.5000000000000004 8.5000000000000018 1.5000000000000002 21.037500000000005 4.0000000000000009 378.50000000000006 621.50000000000011 480.50000000000006 29.349558823529414 24.250000000000004 392.50000000000006 7.7354000000000012 563.00000000000011 32.250000000000007 362.50000000000006 60.000000000000007 693.50000000000011 1.0000000180025095e-35
decision_type=2 2 2 2 2 2 2 2 2 2 2 2 2 2 2 2 2 2 2
left_child=1 16 -2 -3 8 7 -7 9 -5 10 11 -4 -11 14 -14 -15 17 18 -1
right_child=2 3 5 4 -6 6 -8 -9 -10 12 -12 -13 13 15 -16 -17 -18 -19 -20
leaf_value=0.085304859362872076 0.045260695341453987 0.064953305072764991 -0.062411960771934283 0.04659160692341964 -0.056549611056698423 0.024047423284200939 -0.028312697337291828 -0.012177097430016375 0.005623017331258996 -0.069137043451938426 -0.0078949647716569215 -0.035503063487233935 -0.024773864023367582 -0.046804231355623754 -0.055119400060705183 -0.067426098162277737 0.071149711638642713 0.075896505010891568 0.08368603223211582
leaf_weight=7.5169809162616783 5.1692271679639807 7.9580478221178064 7.5288146585226077 4.9755093157291395 3.9933635145425805 7.7382498383522025 8.0051610469818097 5.5538825392723075 5.5472649186849594 4.98425926268101 7.7950760573148719 6.9011828452348709 7.3921360671520251 4.4047032296657544 7.006481871008873 6.3046943992376328 7.2608325630426398 4.8685029447078696 5.5312780290842056
leaf_count=31 21 32 38 20 20 32 35 25 23 25 37 33 35 22 35 33 30 20 23
internal_value=0.00275608 0.0533941 -0.0278719 0.0246544 0.00256171 -0.0330073 -0.00257649 -0.0412857 0.0249943 -0.0443758 -0.0349355 -0.0495427 -0.0513481 -0.0478168 -0.0395402 -0.0589445 0.0790478 0.0822486 0.0846186
internal_weight=126.436 47.6518 78.7839 22.4742 14.5161 73.6146 15.7434 57.8712 10.5228 52.3173 22.2251 14.43 30.0923 25.108 14.3986 10.7094 25.1776 17.9168 13.0483
internal_count=570 199 371 95 63 350 67 283 43 258 108 71 150 125 70 55 104 74 54
is_linear=0
shrinkage=0.05


Tree=10
num_leaves=23
num_cat=0
split_feature=2 0 8 7 1 3 1 1 1 3 7 1 7 7 3 7 7 3 7 7 1 8
split_gain=70.4092 13.2925 11.6076 5.92008 4.71421 4.15448 3.8331 1.88648 3.00129 2.42987 1.5915 1.50263 0.886369 0.949529 0.703012 0.67671 0.871903 0.563828 0.768085 0.00429182 0.00332135 0.00018381
threshold=1.0000000180025095e-35 2.5000000000000004 13.000000000000002 7.7625000000000011 510.50000000000006 15.500000000000002 623.00000000000011 334.50000000000006 531.50000000000011 29.849558823529414 23.725000000000005 318.50000000000006 16.050000000000004 7.7625000000000011 27.500000000000004 7.977100000000001 9.4125000000000014 27.500000000000004 8.0812500000000025 7.977100000000001 738.50000000000011 1.0000000180025095e-35
decision_type=2 2 2 2 2 2 2 2 2 2 2 2 2 2 2 2 2 2 2 2 2 2
left_child=1 14 5 -3 -4 -2 11 10 9 -9 17 -5 13 -10 -1 -15 -17 18 -7 -19 21 -16
right_child=2 3 4 6 -6 7 -8 8 12 -11 -12 -13 -14 15 20 16 -18 19 -20 -21 -22 -23
leaf_value=0.064224796540611015 0.0039898526747015953 0.072047420039319063 0.040548711808712168 0.0052442165802500992 -0.019617974057039196 -0.037029746603515566 -0.024042375108899922 0.0023057540308936289 -0.058826515178879712 -0.03898021435918507 -0.02529595589240205 0.040859466627712532 -0.061820027292335766 -0.017751117388937511 0.082048586134071691 -0.056824127997455114 -0.025727661415703276 -0.067422407272711732 -0.06722547166923902 -0.069665369717962625 0.083415949044591375 0.081623416230419951
leaf_weight=8.3372818529605883 5.6543240547180167 4.6970180869102505 7.4677983224391919 5.2905305624008196 5.7719878405332565 4.731834709644323 5.8949257135391226 7.9591139256954175 4.7634914964437547 6.4535369873046875 4.222260281443595 6.7275455147027969 5.9023312777280799 4.7906994074583045 4.7585858702659589 4.4309148490428907 4.5885037183761597 3.9758800119161588 3.7950799614191055 4.6005736738443375 4.800709441304206 5.4574128389358521
leaf_count=35 24 19 31 23 25 24 26 37 24 32 20 28 29 24 20 23 23 21 20 23 20 23
internal_value=0.000194667 0.0494107 -0.0284011 0.0220835 0.0143186 -0.0369879 0.00898234 -0.0408359 -0.0342822 -0.0161808 -0.0527869 0.0251811 -0.0449411 -0.0395773 0.0758673 -0.0329378 -0.0410042 -0.0595736 -0.050469 -0.0686256 0.0823312 0.0818215
internal_weight=125.072 45.964 79.1083 22.61 13.2398 65.8685 17.913 60.2142 38.8886 14.4127 21.3256 12.0181 24.4759 18.5736 23.354 13.8101 9.01942 17.1034 8.52691 8.57645 15.0167 10.216
internal_count=574 194 380 96 56 324 77 300 192 69 108 51 123 94 98 70 46 88 44 44 63 43
is_linear=0
shrinkage=0.05


Tree=11
num_leaves=23
num_cat=0
split_feature=2 8 6 6 1 3 6 7 1 9 6 7 1 7 6 1 3 1 1 6 3 7
split_gain=64.296 10.7183 5.76389 8.70508 4.23219 3.88025 4.20817 3.35568 2.12716 1.89705 1.68669 1.74371 2.02874 1.52298 1.72947 1.05509 0.610904 0.701974 2.05649 0.482891 0.159908 0.00859227
threshold=1.0000000180025095e-35 13.000000000000002 300.50000000000006 414.00000000000006 510.50000000000006 15.500000000000002 621.50000000000011 10.316650000000001 154.00000000000003 1.5000000000000002 219.50000000000003 7.8667000000000007 496.50000000000006 26.268750000000004 150.50000000000003 527.50000000000011 29.849558823529414 524.50000000000011 218.50000000000003 179.50000000000003 28.250000000000004 14.456250000000002
decision_type=2 2 2 2 2 2 2 2 2 2 2 2 2 2 2 2 2 2 2 2 2 2
left_child=2 5 8 -4 -3 -2 10 -5 -1 -9 13 12 -12 14 -7 -10 17 18 -13 -17 -19 -18
right_child=1 4 3 7 -6 6 -8 9 15 -11 11 16 -14 -15 -16 19 21 20 -20 -21 -22 -23
leaf_value=0.034716192794132295 0.0037873327342231346 0.038279101662108315 -0.026240409544789775 0.011325661589377214 -0.018734535587852447 -0.059472015902900383 -0.00026405972809732942 0.083730058920284456 0.084447355253256376 0.04323115867443747 -0.048389387318940526 -0.066785671427491464 -0.0038923815811222036 -0.0048652078144043702 -0.018719022078940207 0.071386261312623114 -0.065631515547543137 -0.068609035388546874 -0.019357351171070555 0.049383549074202407 -0.054690497932424476 -0.068702876048843994
leaf_weight=4.8035608530044582 5.6587301045656195 7.5138010233640653 5.4000181108713177 4.714313447475436 5.7427237778902054 5.475655868649481 6.1105658560991278 5.2183503210544631 8.9423419386148471 6.4850133210420546 7.5414177477359754 4.2980074733495766 3.8791917413473129 4.3439911603927603 4.9629626423120499 5.1846107989549619 5.4252449572086316 4.1328650712966901 4.8812372088432312 4.8044781386852264 4.1215214729309082 3.9242251366376877
leaf_count=20 24 31 24 19 25 28 28 22 38 29 39 23 20 20 25 22 30 21 24 20 22 20
internal_value=0.000180069 -0.0273806 0.0473797 0.028829 0.0135808 -0.0357661 -0.0395535 0.0469421 0.0644319 0.061289 -0.0440845 -0.0496336 -0.0332753 -0.0297434 -0.0400963 0.0719718 -0.056609 -0.051079 -0.0415648 0.0608036 -0.0616593 -0.0669206
internal_weight=123.565 78.0121 45.5527 21.8177 13.2565 64.7556 59.0969 16.4177 23.735 11.7034 52.9863 38.2037 11.4206 14.7826 10.4386 18.9314 26.7831 17.4336 9.17924 9.98909 8.25439 9.34947
internal_count=574 380 194 94 56 324 300 70 100 51 272 199 59 73 53 80 140 90 47 42 43 50
is_linear=0
shrinkage=0.05


Tree=12
num_leaves=24
num_cat=0
split_feature=2 0 8 7 3 1 1 1 1 7 1 7 7 3 7 1 3 7 7 1 7 1 1
split_gain=58.7314 12.0356 9.90244 5.22777 4.12638 3.80334 3.36252 2.03086 3.11393 3.6342 2.15408 1.52674 1.33991 0.691692 0.660536 0.965564 0.572079 0.789182 0.320958 0.224086 0.00405795 0.00266695 0.000219692
threshold=1.0000000180025095e-35 2.5000000000000004 13.000000000000002 7.7625000000000011 9.5000000000000018 510.50000000000006 623.00000000000011 334.50000000000006 593.50000000000011 23.725000000000005 480.50000000000006 25.527100000000001 15.372900000000001 27.500000000000004 14.456250000000002 786.50000000000011 27.500000000000004 8.0812500000000025 7.8916500000000012 670.50000000000011 7.977100000000001 738.50000000000011 343.50000000000006
decision_type=2 2 2 2 2 2 2 2 2 2 2 2 2 2 2 2 2 2 2 2 2 2 2
left_child=1 13 4 -3 -2 -4 12 11 9 10 18 16 -5 -1 15 19 17 -6 -9 -10 -18 22 -15
right_child=2 3 5 6 7 -7 -8 8 14 -11 -12 -13 -14 21 -16 -17 20 -19 -20 -21 -22 -23 -24
leaf_value=0.059571755251744518 0.011147939790900946 0.066691560793170887 0.036175976313206328 0.0075559282205727787 -0.034218972668197206 -0.017889649601245044 -0.023673645251691595 -0.03187710219677365 -0.040424841344316419 -0.058311097198655272 0.017230469254536761 -0.023621255734753724 0.041092801585014105 0.077601752983128353 -0.059588125220474811 -0.022814969469615573 -0.065565812467249282 -0.06523110605116933 -0.012056465277245812 -0.056612185878566701 -0.067785195085531644 0.078836499632233048 0.077127680076008634
leaf_weight=8.0624381601810473 4.5748254209756842 4.6858947575092342 7.5520575642585737 6.69256140291691 4.5435855835676247 5.7139909118413925 5.8657502979040137 3.9889525920152682 3.7496210187673586 4.0698611438274375 6.2690101712942115 4.151746377348899 5.3665363341569901 5.2678296416997892 5.6321672797203055 5.4408613443374625 3.7520505189895612 3.7400316298007965 4.1855962127447128 4.9741880148649216 4.5659841299057007 4.6379878371953955 4.5585466772317886
leaf_count=35 19 19 31 27 24 25 26 20 20 20 31 20 24 23 29 28 21 21 20 27 24 20 20
internal_value=0.000165317 0.0454402 -0.0264079 0.0196694 -0.0345996 0.0128887 0.00737696 -0.038143 -0.031319 -0.0165782 -0.00481888 -0.0507399 0.0224805 0.071307 -0.0451042 -0.0393451 -0.0575217 -0.0482209 -0.0217284 -0.0496546 -0.0667841 0.0778483 0.0773818
internal_weight=122.042 45.1375 76.9045 22.6107 63.6385 13.266 17.9248 59.0637 38.3103 18.5134 14.4436 20.7534 12.0591 22.5268 19.7968 14.1647 16.6017 8.28362 8.17455 8.72381 8.31803 14.4644 9.82638
internal_count=574 194 380 96 324 56 77 305 195 91 71 110 51 98 104 75 90 45 40 47 45 63 43
is_linear=0
shrinkage=0.05


Tree=13
num_leaves=21
num_cat=0
split_feature=2 0 8 7 3 6 1 6 6 7 6 1 1 6 6 1 6 6 1 3
split_gain=53.7052 11.41 9.32202 4.7393 4.39668 3.44992 6.98636 3.4413 4.37881 2.15827 1.48539 1.11502 2.24942 1.48953 0.737453 0.63141 0.592572 0.00280276 0.0019165 0.000664281
threshold=1.0000000180025095e-35 2.5000000000000004 83.500000000000014 7.7625000000000011 9.5000000000000018 486.50000000000006 623.00000000000011 80.500000000000014 621.50000000000011 7.2396000000000003 59.500000000000007 374.00000000000006 590.50000000000011 459.50000000000006 350.50000000000006 221.50000000000003 403.00000000000006 520.50000000000011 706.50000000000011 28.250000000000004
decision_type=2 2 2 2 2 2 2 2 2 2 2 2 2 2 2 2 2 2 2 2
left_child=1 10 4 -3 -2 6 -5 -6 9 -9 -1 15 13 -13 -14 16 -11 -16 19 -12
right_child=2 3 -4 5 7 -7 -8 8 -10 11 18 12 14 -15 17 -17 -18 -19 -20 -21
leaf_value=0.044403035917156337 0.014981151335138663 0.063539005883140168 0.029959602585146058 0.048609943614869734 -0.0041885055975680397 -0.027242620910504729 -0.028788845097740726 -0.01504121586364434 0.0013060763605231094 -0.059198454617181075 0.076088037131211955 -0.012218943142477836 -0.041577540242278326 -0.048049353467338574 -0.064139492771093543 -0.068413783227436104 -0.035405398408524962 -0.066044831533904627 0.076848594683027543 0.075351147885841727
leaf_weight=4.727957263588908 4.8321366608142844 4.6727717071771648 6.8964810818433753 8.1875461339950579 8.1805568635463697 5.2153436690568915 4.5279574096202841 5.7772849202156058 6.0379169583320609 6.3445209860801715 5.6306491792202014 7.8064916878938693 5.8442172557115537 4.6155161708593369 3.7625115066766739 7.3106150031089774 4.4539225548505783 3.9631178975105286 4.9974437505006781 6.6946028620004654
leaf_count=21 20 19 29 34 37 23 20 31 28 35 25 39 31 23 22 39 24 22 22 30
internal_value=0.000152781 0.0436536 -0.0254653 0.0186902 -0.0310107 0.00700256 0.0210484 -0.0344779 -0.0389092 -0.0437774 0.069243 -0.0475419 -0.0409058 -0.0255321 -0.054979 -0.0570668 -0.0493848 -0.0651169 0.0760227 0.0756878
internal_weight=120.48 44.6543 75.8253 22.6036 68.9288 17.9308 12.7155 64.0967 55.9161 49.8782 22.0507 44.1009 25.9919 12.422 13.5698 18.1091 10.7984 7.72563 17.3227 12.3253
internal_count=574 194 380 96 351 77 54 331 294 266 98 235 137 62 75 98 59 44 77 55
is_linear=0
shrinkage=0.05


Tree=14
num_leaves=22
num_cat=0
split_feature=2 0 3 7 6 6 3 1 9 7 6 1 3 1 1 6 6 6 3 1 3
split_gain=49.1698 10.8144 7.94048 4.30287 3.71109 6.09054 4.81683 4.10596 3.62767 4.97037 3.12359 6.30024 1.94367 1.61207 2.25195 1.49821 1.43215 0.508369 0.0137619 0.0015238 0.000528215
threshold=1.0000000180025095e-35 2.5000000000000004 6.5000000000000009 7.7625000000000011 573.50000000000011 219.50000000000003 30.500000000000004 699.50000000000011 1.0000000180025095e-35 26.268750000000004 486.50000000000006 623.00000000000011 32.250000000000007 563.00000000000011 350.50000000000006 403.00000000000006 59.500000000000007 359.50000000000006 41.500000000000007 706.50000000000011 28.250000000000004
decision_type=2 2 2 2 2 2 2 2 2 2 2 2 2 2 2 2 2 2 2 2 2
left_child=1 16 -2 -3 5 7 -6 8 -4 -10 11 -5 13 14 15 -7 -1 -15 -14 20 -18
right_child=2 3 4 10 6 12 -8 -9 9 -11 -12 -13 18 17 -16 -17 19 -19 -20 -21 -22
leaf_value=0.042809980633250609 0.040078188180863165 0.060650601377701834 0.038854958321719951 0.046099887436152148 -0.029737540934191682 -0.064510691016108887 0.034958589726198044 -0.051564229432442876 -0.049704577955618855 0.013924382625832994 -0.026037252665971962 -0.027532124237851271 -0.063513369932395106 -0.042168463684266466 -0.0093606201851025427 -0.025698098504021064 0.074177400166219348 -0.065940526966114216 -0.067249862984173611 0.074864012125817378 0.073511856326216957
leaf_weight=4.6604375243186977 4.4689200967550269 4.6510704010725048 4.2728000730276152 8.2012758702039736 7.0124707669019681 5.1637163758277946 4.878583088517189 5.2545581310987464 5.5567095726728439 6.855884775519371 5.1847377866506568 4.4986664056777945 5.1569925248622877 3.8264071345329267 7.3676109164953223 4.7954514473676682 5.4904468059539813 5.4554068893194199 4.7195335626602173 4.876486435532569 6.5233360975980759
leaf_count=21 18 19 20 34 34 30 22 26 30 30 23 20 31 20 36 26 25 31 26 22 30
internal_value=0.000141725 0.0420245 -0.0245485 0.0178079 -0.0286559 -0.0338379 -0.00319444 -0.01302 -0.000881638 -0.0145602 0.00666625 0.0200174 -0.0463566 -0.0393257 -0.0303181 -0.045822 0.067348 -0.0561405 -0.0652989 0.0741186 0.073816
internal_weight=118.872 44.0865 74.785 22.5358 70.3161 58.4251 11.8911 21.94 16.6854 12.4126 17.8847 12.6999 36.4851 26.6086 17.3268 9.95917 21.5507 9.28181 9.87653 16.8903 12.0138
internal_count=574 194 380 96 362 306 56 106 80 60 77 54 200 143 92 56 98 51 57 77 55
is_linear=0
shrinkage=0.05


Tree=15
num_leaves=23
num_cat=0
split_feature=2 0 8 6 6 6 1 3 6 1 3 1 3 1 7 7 3 0 1 7 6 6
split_gain=34.9649 18.9381 9.13838 4.6302 5.12813 4.2868 6.39224 2.74069 2.43218 1.77412 1.71996 2.01102 1.24047 2.23163 1.05351 0.569591 0.518155 0.387761 0.16432 0.14778 0.00570268 0.00192763
threshold=1.0000000180025095e-35 2.5000000000000004 4.0000000000000009 347.50000000000006 55.500000000000007 486.50000000000006 604.50000000000011 14.250000000000002 629.50000000000011 579.50000000000011 32.250000000000007 496.50000000000006 26.500000000000004 239.00000000000003 8.0812500000000025 29.850000000000005 26.500000000000004 2.5000000000000004 828.00000000000011 15.875000000000002 370.50000000000006 70.500000000000014
decision_type=2 2 2 2 2 2 2 2 2 2 2 2 2 2 2 2 2 2 2 2 2 2
left_child=1 15 7 4 -4 6 -3 -2 9 10 11 12 14 -14 -9 19 -11 -12 20 -1 -18 -17
right_child=2 5 3 -5 -6 -7 -8 8 -10 16 17 -13 13 -15 -16 21 18 -19 -20 -21 -22 -23
leaf_value=0.062365736981349187 0.0038964215451622627 0.038065269387212608 -0.010253656154221261 -0.031129620504061473 0.060285714125258585 -0.038766189536796745 -0.029712410354894955 -0.031754590111850604 -0.0036480856427631089 -0.038435520847762604 -0.042157018541743196 0.0052881735818874169 0.0088922986915385901 -0.038939979762675561 -0.064344822518960412 0.073536855018530703 -0.065488749238726315 -0.063368644821925474 -0.050989843490452838 0.049433281813140426 -0.062764484895950698 0.072231433992793109
leaf_weight=4.5519243776798266 4.4704743176698676 9.2268746793270129 4.6808325797319394 4.7192690670490256 5.7312675714492798 5.6232668459415427 5.5840143263339987 5.6902901530265861 4.9936001002788535 3.7287071049213401 4.1860603243112546 4.0057388246059409 3.8498253971338254 6.6516857147216797 4.3950015604496002 4.3466685563325873 3.5619027465581876 4.4395936280488968 3.5219216793775558 4.2916648983955383 4.1697696298360825 8.0933304876089078
leaf_count=21 19 38 20 20 24 25 25 31 23 21 23 20 20 34 26 20 20 27 20 20 26 38
internal_value=-0.00371458 0.0327818 -0.0246299 0.00995342 0.0285742 -0.00159946 0.0125117 -0.0337047 -0.0368647 -0.0403059 -0.0338637 -0.0271256 -0.0334326 -0.0214048 -0.0459569 0.065791 -0.0545894 -0.0530746 -0.0599418 0.0560898 -0.0640195 0.0726876
internal_weight=114.514 41.7177 72.7959 15.1314 10.4121 20.4342 14.8109 57.6646 53.1941 48.2005 33.2182 24.5925 20.5868 10.5015 10.0853 21.2836 14.9823 8.62565 11.2536 8.84359 7.73167 12.44
internal_count=561 187 374 64 44 88 63 310 291 268 181 131 111 54 57 99 87 50 66 41 46 58
is_linear=0
shrinkage=0.05


Tree=16
num_leaves=21
num_cat=0
split_feature=2 0 8 6 6 6 3 6 7 7 3 6 6 7 3 6 7 6 7 6
split_gain=32.0833 17.7196 8.4621 4.17811 4.57586 3.90187 2.6389 2.62816 2.38043 1.69076 2.49916 1.83142 1.72327 0.558206 0.553594 0.524264 0.446411 0.341385 0.141829 0.00155083
threshold=1.0000000180025095e-35 2.5000000000000004 4.0000000000000009 347.50000000000006 55.500000000000007 486.50000000000006 20.500000000000004 457.50000000000006 15.372900000000001 7.977100000000001 29.349558823529414 154.00000000000003 414.00000000000006 29.850000000000005 29.349558823529414 269.50000000000006 23.125000000000004 496.50000000000006 15.875000000000002 70.500000000000014
decision_type=2 2 2 2 2 2 2 2 2 2 2 2 2 2 2 2 2 2 2 2
left_child=1 13 6 4 -4 8 7 -2 -3 10 -8 -11 15 18 -13 -12 17 -16 -1 -15
right_child=2 5 3 -5 -6 -7 9 -9 -10 11 12 14 -14 19 16 -17 -18 -19 -20 -21
leaf_value=0.060694032838149607 -0.029535788094583543 -0.0035227005988407016 -0.009761201297549111 -0.029769478434356109 0.056784812709947868 -0.03717878381856736 0.00099081285757233128 0.020774898820189031 0.038037172470457056 -0.022973410606674162 -0.038850304454202803 -0.066233689767980983 -0.014634813324517782 0.071870128736856873 -0.063603219852678292 -0.064332258266310283 -0.036012652502766619 -0.044553815648558315 0.047889434174372414 0.070682671631256119
leaf_weight=4.4461299329996127 6.9644607305526716 9.263495400547983 4.6713802963495237 4.6889289319515219 5.7790715247392654 5.5715282708406439 5.7577456980943706 4.1381837576627731 5.4858789294958106 6.542682588100436 3.7379520386457425 5.9361782073974636 4.7240338623523703 4.2281022667884809 4.9204349070787412 4.3879636079072952 4.9978430718183509 4.5054803490638733 4.2105972170829773 7.8629730045795441
leaf_count=21 37 38 20 20 24 25 30 20 25 34 21 33 26 20 30 26 28 25 20 38
internal_value=-0.00358809 0.0316552 -0.0237602 0.00944413 0.0270386 -0.00153083 -0.0326397 -0.010784 0.0119351 -0.0379716 -0.0263836 -0.0459866 -0.0386495 0.0641585 -0.0533819 -0.0526105 -0.0480927 -0.0544978 0.0544659 0.0710979
internal_weight=112.821 41.0687 71.7523 15.1394 10.4505 20.3209 56.613 11.1026 14.7494 45.5103 18.6077 26.9026 12.8499 20.7478 20.3599 8.12592 14.4238 9.42592 8.65673 12.0911
internal_count=561 187 374 64 44 88 310 57 63 253 103 150 73 99 116 47 83 55 41 58
is_linear=0
shrinkage=0.05


Tree=17
num_leaves=20
num_cat=0
split_feature=2 0 8 6 1 6 1 3 7 7 3 1 6 7 3 1 3 7 6
split_gain=29.3973 16.644 7.82243 3.7733 4.12137 3.54684 5.87083 2.49345 2.61335 1.6176 2.33883 1.8674 1.77612 0.550363 0.543476 0.661089 0.547191 0.136771 0.00125378
threshold=1.0000000180025095e-35 2.5000000000000004 4.0000000000000009 347.50000000000006 431.00000000000006 486.50000000000006 604.50000000000011 20.500000000000004 17.900000000000002 7.977100000000001 29.349558823529414 503.50000000000006 154.00000000000003 29.850000000000005 29.349558823529414 649.50000000000011 32.250000000000007 15.875000000000002 70.500000000000014
decision_type=2 2 2 2 2 2 2 2 2 2 2 2 2 2 2 2 2 2 2
left_child=1 13 7 4 -4 6 -3 8 -2 10 -9 -12 -11 17 -14 16 -16 -1 -15
right_child=2 5 3 -5 -6 -7 -8 9 -10 12 11 -13 14 18 15 -17 -18 -19 -20
leaf_value=0.059124775163049585 0.0078077325541665195 0.035842677032606123 0.054547982979339264 -0.028472644830171024 -0.0083726896996775182 -0.035664076384881137 -0.029145464125925225 0.00094082659637856043 -0.042959668193076277 -0.022064666308403896 -0.057025384841153742 -0.018496918860684105 -0.065211111460329693 0.070355235466171909 -0.028279170527114011 -0.062648389002453397 -0.052324443670868137 0.046412152673754217 0.069271609376133511
leaf_weight=4.3386700451374072 7.1054077893495542 9.2045381069183367 5.6596265286207181 4.6581658571958533 4.8180704712867737 5.5191060751676551 5.5829523950815192 5.7603998929262188 3.9408949613571167 6.4733413159847286 6.2143713682889921 6.3672645837068558 5.732952535152438 4.1062732487916929 5.091782018542288 4.5367833673954001 4.4198030531406403 4.1294704228639603 7.6279432773590088
leaf_count=21 39 38 23 20 21 25 25 30 18 34 36 37 33 20 27 29 27 20 38
internal_value=-0.00346061 0.0305079 -0.0229018 0.00896881 0.0256145 -0.00145944 0.0113067 -0.0315712 -0.0103041 -0.0368389 -0.025446 -0.0375271 -0.0447982 0.0626401 -0.0522376 -0.0469433 -0.0394524 0.0529255 0.0696508
internal_weight=111.288 40.509 70.7789 15.1359 10.4777 20.3066 14.7875 55.643 11.0463 44.5967 18.342 12.5816 26.2547 20.2024 19.7813 14.0484 9.51159 8.46814 11.7342
internal_count=561 187 374 64 44 88 63 310 57 253 103 73 150 99 116 83 54 41 58
is_linear=0
shrinkage=0.05


Tree=18
num_leaves=24
num_cat=0
split_feature=2 0 3 6 6 6 1 1 6 1 9 1 6 1 6 3 1 3 9 1 6 1 7
split_gain=26.9745 15.6182 5.66606 5.31169 8.518 3.22968 5.33886 3.45702 2.14784 2.82532 2.87356 1.62348 1.22678 1.89114 1.44077 0.61427 0.547421 0.465826 0.440935 0.233486 0.198966 0.00579215 0.000843214
threshold=1.0000000180025095e-35 2.5000000000000004 6.5000000000000009 102.50000000000001 47.500000000000007 486.50000000000006 614.00000000000011 406.50000000000006 629.50000000000011 590.50000000000011 1.5000000000000002 389.50000000000006 399.50000000000006 273.50000000000006 260.50000000000006 31.500000000000004 745.50000000000011 24.250000000000004 1.5000000000000002 808.50000000000011 585.50000000000011 230.50000000000003 29.850000000000005
decision_type=2 2 2 2 2 2 2 2 2 2 2 2 2 2 2 2 2 2 2 2 2 2 2
left_child=1 16 -2 4 -4 6 7 -3 9 10 11 -5 14 -14 15 -12 20 -11 -19 -20 22 -16 -1
right_child=2 5 3 8 -6 -7 -8 -9 -10 17 12 -13 13 -15 21 -17 -18 18 19 -21 -22 -23 -24
leaf_value=0.069306619619501381 0.042615858080033174 0.0027218922203260196 -0.0426045136253769 -0.025098310496079704 0.040176656484268977 -0.034216451651214737 -0.030854051478506412 0.062524108282212318 -0.0027228354831992426 -0.068301234319890353 -0.047301004664535039 0.017584460943503005 0.0028522002746163445 -0.039587377136849879 -0.061828152588539236 -0.017933336757862132 0.044811482881729287 -0.063941917429689826 -0.049456160530479465 -0.031362200480519208 0.055739571363454248 -0.064823469485387961 0.068421977104422049
leaf_weight=4.2140805870294589 3.2290059477090827 4.8429749906063098 5.5213153362274152 4.3368170112371427 7.108160674571991 5.4663418531417838 5.0539495497941962 4.8235130161046982 5.6015295088291159 4.0595128685235968 3.1942872256040591 4.5811693370342255 4.1421026289463025 7.166588306427002 3.0504370331764221 4.0232144147157669 4.037728637456893 3.1512590944766989 4.0737716704607001 3.1705612391233444 3.9335614144802085 3.4273528903722763 7.4658575803041458
leaf_count=21 13 20 25 23 31 25 23 20 26 22 20 23 23 39 20 23 20 19 27 20 20 20 38
internal_value=-0.00333981 0.0294914 -0.0220681 -0.0252038 0.00398664 -0.00139724 0.01079 0.0325628 -0.0320336 -0.0354274 -0.0275397 -0.00317217 -0.0362307 -0.0240428 -0.0462946 -0.0309307 0.0612218 -0.0539378 -0.0483288 -0.0415371 0.0654656 -0.063413 0.0687412
internal_weight=109.675 39.838 69.8371 66.6081 12.6295 20.1868 14.7204 9.66649 53.9786 48.3771 33.922 8.91799 25.004 11.3087 13.6953 7.2175 19.6512 14.4551 10.3956 7.24433 15.6135 6.47779 11.6799
internal_count=561 187 374 361 56 88 63 40 305 279 191 46 145 62 83 43 99 88 66 47 79 40 59
is_linear=0
shrinkage=0.05


Tree=19
num_leaves=23
num_cat=0
split_feature=2 0 8 6 6 6 1 3 6 5 3 6 6 6 0 6 1 1 6 6 1 1
split_gain=24.7686 14.669 6.93246 3.24106 3.67229 2.94176 4.89765 2.36639 2.44964 1.18012 0.831081 1.05175 2.32296 1.65915 1.0178 0.984537 0.539307 0.230095 0.280207 0.196339 0.171994 0.000521069
threshold=1.0000000180025095e-35 2.5000000000000004 4.0000000000000009 347.50000000000006 55.500000000000007 486.50000000000006 604.50000000000011 20.500000000000004 457.50000000000006 1.0000000180025095e-35 32.250000000000007 445.00000000000006 377.50000000000006 266.50000000000006 2.5000000000000004 423.50000000000006 745.50000000000011 618.50000000000011 535.50000000000011 585.50000000000011 400.50000000000006 268.00000000000006
decision_type=2 2 2 2 2 2 2 2 2 2 2 2 2 2 2 2 2 2 2 2 2 2
left_child=1 16 7 4 -4 6 -3 8 -2 10 11 12 13 14 -9 20 19 18 -13 21 -12 -1
right_child=2 5 3 -5 -6 -7 -8 9 -10 -11 15 17 -14 -15 -16 -17 -18 -19 -20 -21 -22 -23
leaf_value=0.067966735167463821 -0.027327864783446044 0.032734417925983327 -0.0091340440454045404 -0.026264643290608271 0.05053520083156942 -0.032831022391712948 -0.026973927396102621 -0.033361956301651223 0.02167645451192235 -0.06393761706109051 -0.046680718579725076 -0.035001253786682097 0.014980451700327814 -0.053257706302671064 0.00022467882621045093 -0.023236802647308472 0.043453968378419 -0.030872988337049868 -0.054790976835217609 0.054401214317504859 -0.062416337843650888 0.067252009755435091
leaf_weight=3.8837992548942584 6.742119222879408 9.1428343206644076 4.627679303288458 4.5967574864625922 5.8233213126659393 5.4135310947895041 5.5007889568805686 4.6603468358516746 4.1016216427087784 3.241817280650138 3.1288319677114469 3.393978148698805 3.6546237468719474 4.89302834868431 4.3714490532875061 3.5914784967899323 3.9577305465936652 4.36546990275383 3.7818235158920288 3.8314244002103797 3.9024593830108643 7.425979807972908
leaf_count=20 37 38 20 20 24 25 25 27 20 20 20 20 20 30 23 22 20 26 20 20 25 39
internal_value=-0.0032265 0.0285261 -0.0212777 0.0087243 0.0241138 -0.00133739 0.0103053 -0.0296646 -0.00879209 -0.0349301 -0.032564 -0.028197 -0.0204978 -0.0298092 -0.0171058 -0.0445353 0.0598879 -0.0399244 -0.0454309 0.0641835 -0.0554142 0.0674974
internal_weight=108.033 39.1561 68.8768 15.0478 10.451 20.0572 14.6436 53.829 10.8437 42.9853 39.7435 29.1207 17.5794 13.9248 9.0318 10.6228 19.0989 11.5413 7.1758 15.1412 7.03129 11.3098
internal_count=561 187 374 64 44 88 63 310 57 253 233 166 100 80 50 67 99 66 40 79 45 59
is_linear=0
shrinkage=0.05


Tree=20
num_leaves=24
num_cat=0
split_feature=2 3 0 6 6 9 6 1 1 1 6 4 8 6 6 6 1 1 3 1 1 3 6
split_gain=28.5107 9.26221 7.59787 4.9171 7.22458 3.9421 3.84029 2.89657 2.42316 2.6539 3.97158 1.72227 1.02907 0.725317 1.05899 0.893015 0.546496 0.169357 0.0210283 0.00856033 0.00327445 0.000409736 0.000206171
threshold=1.0000000180025095e-35 6.5000000000000009 2.5000000000000004 102.50000000000001 50.500000000000007 1.5000000000000002 651.50000000000011 507.50000000000006 334.50000000000006 81.000000000000014 527.50000000000011 1.0000000180025095e-35 60.000000000000007 573.50000000000011 344.50000000000006 248.50000000000003 403.50000000000006 685.50000000000011 29.349558823529414 177.50000000000003 674.50000000000011 24.250000000000004 347.50000000000006
decision_type=2 2 2 2 2 2 2 2 2 2 2 2 2 2 2 2 2 2 2 2 2 2 2
left_child=2 -2 12 4 -3 -4 7 8 9 -5 19 -7 17 14 15 -9 -10 21 -16 -11 -20 -1 -21
right_child=1 3 5 6 -6 11 -8 13 16 10 -12 -13 -14 -15 18 -17 -18 -19 20 22 -22 -23 -24
leaf_value=0.066759368712872233 0.054862973693699295 -0.04099033765716488 0.0412182600039179 -0.000569392833957778 0.043000865330543231 0.01332390145775769 0.018582274509073043 -0.053366736955478777 0.012441412273280585 -0.064678086599914947 0.00076644525546760382 -0.023848525461553079 0.0370376650806147 -0.027938140700683241 -0.066532147659859639 -0.019131001321765786 -0.012379081090245693 0.054087654269783972 -0.062770658761873224 -0.061787816441489674 -0.060486574011460695 0.066114818930761848 -0.061206126994510418
leaf_weight=3.7547150403261202 3.9764613360166541 4.4504651427268964 7.6133910417556772 4.3628409057855668 6.0281361043453217 6.5249947011470795 3.7290035635232917 4.3781124502420488 3.7105051279067975 3.2235149294137937 3.3668190836906424 5.9642391502857208 5.0578796565532675 3.7372087538242331 3.3258329480886442 3.371629998087883 5.512394905090332 3.803704932332038 3.1004223376512527 2.9968238323926926 3.1769597455859184 7.1817784607410431 3.0980599820613861
leaf_count=20 16 21 32 24 26 28 17 26 20 20 17 28 27 20 19 21 30 20 20 20 23 39 21
internal_value=0.00118956 -0.0190956 0.0345122 -0.0238723 0.00732817 0.0128596 -0.0302715 -0.034118 -0.023039 -0.0342081 -0.0457775 -0.00442781 0.0564979 -0.0479187 -0.0522218 -0.038472 -0.00239344 0.0631754 -0.0633177 -0.0625943 -0.0616147 0.0663361 -0.0614921
internal_weight=105.446 65.5452 39.9007 61.5687 10.4786 20.1026 51.0901 47.3611 26.271 17.0481 12.6852 12.4892 19.7981 21.0902 17.353 7.74974 9.2229 14.7402 9.60322 9.3184 6.27738 10.9365 6.09488
internal_count=555 361 194 345 47 88 298 281 152 102 78 56 106 129 109 47 50 79 62 61 43 59 41
is_linear=0
shrinkage=0.05


Tree=21
num_leaves=24
num_cat=0
split_feature=2 3 0 6 6 6 6 1 1 1 6 7 6 6 6 3 1 6 3 1 1 1 7
split_gain=26.1815 8.42837 7.26596 4.55319 6.53709 3.58942 3.5604 2.77484 2.27234 2.52107 4.04175 2.15858 0.713461 1.05434 0.858573 0.553804 0.493879 0.192371 0.0175959 0.00749965 0.00273466 0.000998899 0.000558797
threshold=1.0000000180025095e-35 6.5000000000000009 2.5000000000000004 102.50000000000001 50.500000000000007 300.50000000000006 651.50000000000011 507.50000000000006 334.50000000000006 81.000000000000014 532.50000000000011 16.050000000000004 573.50000000000011 344.50000000000006 248.50000000000003 26.500000000000004 403.50000000000006 568.50000000000011 29.349558823529414 177.50000000000003 674.50000000000011 633.50000000000011 8.3312500000000025
decision_type=2 2 2 2 2 2 2 2 2 2 2 2 2 2 2 2 2 2 2 2 2 2 2
left_child=2 -2 15 4 -3 -4 7 8 9 -5 19 -7 13 14 -9 -1 -10 21 -15 -11 -20 -17 -21
right_child=1 3 5 6 -6 11 -8 12 16 10 -12 -13 -14 18 -16 17 -18 -19 20 22 -22 -23 -24
leaf_value=0.043780472076339561 0.052026330317720575 -0.039537560230705426 0.042524440681076831 -0.00054107212569733923 0.040597995725562427 0.011792719482280365 0.017542277817635055 -0.052278362952837942 0.011748197308022037 -0.063815064588341061 0.0032658863859030894 -0.030540073820723559 -0.026910358389273355 -0.065517095776422604 -0.018383112167148549 0.065076632528509926 -0.011835496971003551 0.051849554968645267 -0.062012243930351651 -0.061258505951247315 -0.059883602490361898 0.066154830431727332 -0.060292839611034668
leaf_weight=6.7674144506454494 3.9833984822034827 4.3849827200174314 6.5801380127668407 4.3616728484630647 6.0646886229515076 8.8916556686162931 3.7519645392894736 4.2490887045860353 3.7323950231075269 3.1067140921950323 3.2320052534341803 4.553368315100669 3.6872413754463187 3.2113934606313688 3.3343301713466644 5.1568323820829374 5.4781854003667831 3.6261480152606955 2.9843639507889748 3.0761719346046448 3.0516733229160309 3.681895449757576 2.9202651008963585
leaf_count=37 16 21 28 24 26 37 17 26 20 20 16 23 20 19 21 29 30 20 20 21 23 20 21
internal_value=0.0011413 -0.0184262 0.0333458 -0.0230552 0.00697081 0.0122652 -0.0293082 -0.0330945 -0.0222161 -0.0332142 -0.0447674 -0.00254395 -0.0468303 -0.0511943 -0.0373751 0.0552955 -0.0022787 0.0615472 -0.0625269 -0.0618212 -0.0609361 0.0655258 -0.0607882
internal_weight=103.868 64.6105 39.2575 60.6271 10.4497 20.0252 50.1775 46.4255 25.9074 16.6968 12.3352 13.445 20.5181 16.8308 7.58342 19.2323 9.21058 12.4649 9.24743 9.10315 6.03604 8.83873 5.99644
internal_count=555 361 194 345 47 88 298 281 152 102 78 60 129 109 47 106 50 69 62 62 43 49 42
is_linear=0
shrinkage=0.05


Tree=22
num_leaves=24
num_cat=0
split_feature=2 3 0 6 6 9 6 1 7 1 1 6 6 6 6 3 3 3 3 1 1 1 7
split_gain=24.046 7.6763 6.95009 4.21573 5.91993 3.37501 3.30167 2.65779 2.44357 2.13129 2.39633 3.89905 0.70208 1.05123 0.825935 0.54757 0.488046 0.197892 0.0147544 0.00641639 0.00228799 0.000575099 0.000468878
threshold=1.0000000180025095e-35 6.5000000000000009 2.5000000000000004 102.50000000000001 50.500000000000007 1.5000000000000002 651.50000000000011 507.50000000000006 17.900000000000002 334.50000000000006 81.000000000000014 532.50000000000011 573.50000000000011 344.50000000000006 248.50000000000003 26.500000000000004 29.849558823529414 43.500000000000007 29.349558823529414 177.50000000000003 674.50000000000011 649.50000000000011 8.3312500000000025
decision_type=2 2 2 2 2 2 2 2 2 2 2 2 2 2 2 2 2 2 2 2 2 2 2
left_child=2 -2 15 4 -3 -4 7 9 -7 10 -5 19 13 14 -9 -1 -11 21 -15 -12 -20 -17 -21
right_child=1 3 5 6 -6 8 -8 12 -10 16 11 -13 -14 18 -16 17 -18 -19 20 22 -22 -23 -24
leaf_value=0.042583367079959272 0.049410566306942988 -0.038140943503684487 0.038151756083003363 -0.00051415271446996901 0.038371352981367908 0.011551660030474677 0.01656867211286708 -0.051226890228052525 -0.035311545103947337 0.0078924350077490876 -0.063012218489462229 0.0030987190107952516 -0.025914385439156751 -0.064577260646112508 -0.017658549575802016 0.064241389512748631 -0.015352348144323832 0.050483228988236754 -0.061306670573167105 -0.060597483303977552 -0.059320472955734886 0.065073397312656989 -0.059695107351047549
leaf_weight=6.6137229353189495 3.9845106005668631 4.3199490010738355 7.5146186053752908 4.3605627715587678 6.0949651449918747 8.2265457808971387 3.7732495963573447 4.1227143555879655 4.2027019262313852 5.2167527675628644 2.99189195781946 3.2359406352043143 3.6387633532285681 3.0980965793132764 3.2985187768936157 5.0003827363252622 3.9816298484802246 3.5069237649440756 2.8706553801894188 2.9572531133890152 2.9296981766819954 3.5525445640087128 2.8049499988555908
leaf_count=37 16 21 32 24 26 34 17 26 22 27 20 16 20 19 21 29 23 20 20 21 23 20 21
internal_value=0.00109466 -0.017783 0.0322239 -0.022268 0.00663521 0.0116989 -0.0283764 -0.032103 -0.0042942 -0.0214231 -0.0322547 -0.0437982 -0.0457744 -0.0502025 -0.0363068 0.0541451 -0.00216935 0.0604857 -0.0617914 -0.0611336 -0.0603035 0.064587 -0.0601582
internal_weight=102.298 63.6801 38.6174 59.6956 10.4149 19.9439 49.2807 45.5074 12.4292 25.549 16.3506 11.99 19.9584 16.3197 7.42123 18.6736 9.19838 12.0599 8.89845 8.7541 5.80035 8.55293 5.7622
internal_count=555 361 194 345 47 88 298 281 56 152 102 78 129 109 47 106 50 69 62 62 43 49 42
is_linear=0
shrinkage=0.05


Tree=23
num_leaves=24
num_cat=0
split_feature=2 3 0 6 6 6 6 1 1 1 6 4 8 6 6 6 1 1 3 1 1 3 6
split_gain=22.0996 6.99633 6.63855 3.90262 5.36482 3.09233 3.06217 2.54519 1.99834 2.27805 3.76458 1.48545 1.07593 0.691003 1.04938 0.794844 0.458504 0.186859 0.0123953 0.00549573 0.0019175 0.000914865 0.000158465
threshold=1.0000000180025095e-35 6.5000000000000009 2.5000000000000004 102.50000000000001 50.500000000000007 300.50000000000006 651.50000000000011 507.50000000000006 334.50000000000006 81.000000000000014 532.50000000000011 1.0000000180025095e-35 60.000000000000007 573.50000000000011 344.50000000000006 248.50000000000003 403.50000000000006 685.50000000000011 29.349558823529414 177.50000000000003 674.50000000000011 24.250000000000004 347.50000000000006
decision_type=2 2 2 2 2 2 2 2 2 2 2 2 2 2 2 2 2 2 2 2 2 2 2
left_child=2 -2 12 4 -3 -4 7 8 9 -5 19 -7 17 14 15 -9 -10 21 -16 -11 -20 -1 -21
right_child=1 3 5 6 -6 11 -8 13 16 10 -12 -13 -14 -15 18 -17 -18 -19 20 22 -22 -23 -24
leaf_value=0.064382105626967945 0.046986713251116821 -0.036796084322342375 0.03942930428906101 -0.00048856802018564102 0.036301281653247877 0.012532753382650556 0.01565613678436981 -0.05020806577181295 0.011408662571860012 -0.062264203098978801 0.002940307552604487 -0.021016006118213814 0.032403987925054209 -0.024949055407877306 -0.063705497362468208 -0.016956867814421496 -0.011327736485539249 0.050279506964456266 -0.060649352928204316 -0.059848612351426557 -0.058793968587319459 0.063375691216389446 -0.059313111076935092
leaf_weight=3.4640648663043994 3.9806332886219016 4.2556074708700162 6.5073799937963512 4.359507814049727 6.1197314709424973 7.3042042851448041 3.7929950058460227 3.9992064535617855 3.7415653020143491 2.8792962282896024 3.2396667003631583 6.0178713351488113 4.6827741712331763 3.5917950570583335 2.9863007515668851 3.2641569674015045 5.4432100355625153 3.4897756576538077 2.7594942077994347 2.6627132073044777 2.8111376538872719 6.4862761795520782 2.8711414709687233
leaf_count=20 16 21 28 24 26 31 17 26 20 20 16 29 27 20 19 21 30 20 20 20 23 39 22
internal_value=0.00105043 -0.0171637 0.0311694 -0.0215082 0.00631925 0.0111779 -0.0274732 -0.0311404 -0.0206576 -0.031322 -0.0428572 -0.00262195 0.0530435 -0.0447472 -0.0492422 -0.035265 -0.0020657 0.0602346 -0.0611064 -0.0604926 -0.0597131 0.0637261 -0.0595708
internal_weight=100.711 62.7582 37.9523 58.7775 10.3753 19.8295 48.4022 44.6092 25.1971 16.0123 11.6528 13.3221 18.1229 19.4121 15.8203 7.26336 9.18478 13.4401 8.55693 8.41315 5.57063 9.95034 5.53385
internal_count=555 361 194 345 47 88 298 281 152 102 78 60 106 129 109 47 50 79 62 62 43 59 42
is_linear=0
shrinkage=0.05


Tree=24
num_leaves=24
num_cat=0
split_feature=1 6 6 7 7 3 7 1 3 3 7 7 3 3 1 6 6 1 1 8 3 7 6
split_gain=6.47539 7.2504 4.52381 4.46083 4.49013 5.28043 3.55301 4.43036 2.57421 2.29927 2.16888 3.369 2.20105 3.35527 1.80823 1.64915 1.82625 1.71475 2.44318 1.28837 1.05035 0.390982 0.178
threshold=828.00000000000011 311.50000000000006 540.50000000000011 52.277100000000011 32.193750000000009 16.500000000000004 15.800000000000002 374.00000000000006 33.500000000000007 29.849558823529414 28.200000000000003 74.375000000000014 24.250000000000004 30.500000000000004 590.50000000000011 500.50000000000006 333.50000000000006 623.00000000000011 545.00000000000011 60.000000000000007 27.500000000000004 7.977100000000001 188.50000000000003
decision_type=2 2 2 2 2 2 2 2 2 2 2 2 2 2 2 2 2 2 2 2 2 2 2
left_child=1 3 15 4 5 -1 7 22 -8 -2 12 -12 -4 -14 -9 16 -3 18 20 -5 -18 -22 -7
right_child=9 2 10 19 -6 6 8 14 -10 -11 11 -13 13 -15 -16 -17 17 -19 -20 -21 21 -23 -24
leaf_value=0.076603292700073461 -0.066127659123485741 -0.050164181139735711 0.046794868607118088 0.072289681516166993 -0.041150648713043247 -0.04144842812762712 0.058313126989050723 0.044250958630629146 0.0044237391648074909 -0.011151352362340645 -0.032224345275033726 0.026013609657357512 -0.026572862506680114 0.03910307938050419 -0.00039153456961336317 -0.052919086284962592 0.0023448154860409762 -0.040519718776923799 0.034095026847863606 0.033330204601415336 -0.037143414819322283 -0.013863365094089811 -0.02520882593803277
leaf_weight=3.4445752799510982 4.4767801985144606 3.5024678483605447 5.2708007246255892 4.2253458648920041 3.5399297177791587 3.7442780882120195 5.2519073486328107 4.0135359019041044 3.8336492776870728 3.3065973818302155 6.1788408607244474 4.1520081758499146 4.0505405813455582 3.7406228259205818 5.2163255512714386 3.6507022306323043 5.6823221445083671 3.972636215388774 3.3611424863338462 4.2629989981651306 3.8946047201752663 3.3591363951563835 3.0715895146131516
leaf_count=16 25 18 25 23 19 23 28 22 21 20 35 22 23 20 32 23 30 27 18 21 24 20 20
internal_value=0.00100786 0.00473524 -0.00785158 0.0204876 0.0119675 0.0185476 0.0105903 -0.00355641 0.0355745 -0.0427722 0.0083009 -0.00881829 0.0218407 0.00495888 0.0190209 -0.0216302 -0.0168252 -0.0110645 -0.00388445 0.0527235 -0.0137525 -0.0263627 -0.03413
internal_weight=99.2033 91.42 50.8158 40.6041 32.1158 28.5759 25.1313 16.0457 9.08556 7.78338 23.3928 10.3308 13.062 7.79116 9.22986 27.423 23.7723 20.2698 16.2972 8.48834 12.9361 7.25374 6.81587
internal_count=555 510 285 225 181 162 146 97 49 45 125 57 68 43 54 160 137 119 92 44 74 44 43
is_linear=0
shrinkage=0.05


Tree=25
num_leaves=24
num_cat=0
split_feature=2 8 0 7 7 1 3 1 6 6 5 6 6 3 3 7 1 3 7 6 1 1 9
split_gain=25.8863 5.78715 4.90725 2.91232 3.08869 2.37745 5.04653 5.55141 2.21652 2.61229 1.98143 1.31029 1.18535 1.55954 1.95182 0.473091 1.27458 0.432274 0.184788 0.150758 0.0285853 0.00444559 0.000423248
threshold=1.0000000180025095e-35 83.500000000000014 2.5000000000000004 7.977100000000001 15.372900000000001 531.50000000000011 14.250000000000002 449.00000000000006 176.50000000000003 609.00000000000011 1.5000000000000002 55.500000000000007 540.50000000000011 29.349558823529414 25.500000000000004 26.775000000000002 367.50000000000006 19.500000000000004 29.850000000000005 350.50000000000006 418.50000000000006 663.50000000000011 1.0000000180025095e-35
decision_type=2 2 2 2 2 2 2 2 2 2 2 2 2 2 2 2 2 2 2 2 2 2 2
left_child=2 5 11 -4 -5 6 -2 12 -7 17 -6 -1 13 14 -8 16 -15 -10 20 -19 -13 -21 -20
right_child=1 -3 3 4 10 8 7 -9 9 -11 -12 18 -14 15 -16 -17 -18 19 22 21 -22 -23 -24
leaf_value=0.023790659656719351 0.042455982911119676 0.02399097293129035 0.040815527639379262 -0.025377444758612977 0.04599040899265569 -0.012381745686913833 -0.032073198672863547 0.019933772389749044 -0.076310700516991639 -0.009109035002060048 -0.00342066343711654 0.048106355285884084 -0.054194915373194444 -0.061824077652273546 0.016134590719710136 -0.023274914004717959 -0.022567835873956339 -0.04559842287662963 0.063266932732280137 -0.060494362679385155 0.054082065013216198 -0.057693355716638334 0.062468834082864293
leaf_weight=3.7954839617013958 3.2157644331455222 6.6895255446434012 7.2415091395378139 6.0034432113170615 4.1649420559406263 5.8539612591266659 4.961363375186929 6.0254883319139472 2.8977419361472121 3.2798058539628974 3.95620496571064 3.3025614470243436 5.4033776819705954 5.0703284814953786 3.6401376947760582 3.1972022056579581 3.4915973693132401 3.2986870557069761 3.4768679887056351 2.7280043885111809 5.0789707750082016 2.9467499628663063 3.1810759902000418
leaf_count=23 14 29 31 25 19 32 34 32 16 17 21 20 27 38 22 15 20 23 21 20 30 26 20
internal_value=0.00011708 -0.0199638 0.0314362 0.0150345 0.00181687 -0.0252134 -0.0172337 -0.0232718 -0.0385118 -0.0486078 0.0219199 0.0500421 -0.0333764 -0.0278516 -0.0116718 -0.0396867 -0.0458152 -0.0595206 0.0566672 -0.0540987 0.0517275 -0.0590399 0.0628856
internal_weight=102.901 62.6997 40.2011 21.3661 14.1246 56.0102 35.0053 31.7895 21.005 15.151 8.12115 18.835 25.764 20.3606 8.6015 11.7591 8.56193 11.8712 15.0395 8.97344 8.38153 5.67475 6.65794
internal_count=575 365 210 96 65 336 202 188 134 102 40 114 156 129 56 73 58 85 91 69 50 46 41
is_linear=0
shrinkage=0.05


Tree=26
num_leaves=23
num_cat=0
split_feature=2 8 4 3 4 6 1 1 6 3 6 6 1 6 3 6 7 6 1 1 6 1
split_gain=23.7254 5.31019 5.10621 9.19392 2.36375 2.24419 2.1499 3.79236 1.99369 1.74234 1.46247 2.67026 1.51942 1.35105 1.28911 1.17955 1.14695 0.385394 0.352686 0.908228 0.191449 0.00224166
threshold=1.0000000180025095e-35 86.500000000000014 1.5000000000000002 16.500000000000004 1.0000000180025095e-35 219.50000000000003 334.50000000000006 531.50000000000011 300.50000000000006 32.250000000000007 156.50000000000003 483.50000000000006 614.00000000000011 550.50000000000011 29.349558823529414 610.50000000000011 18.768750000000004 414.00000000000006 135.00000000000003 221.50000000000003 359.50000000000006 663.50000000000011
decision_type=2 2 2 2 2 2 2 2 2 2 2 2 2 2 2 2 2 2 2 2 2 2
left_child=4 2 3 -2 10 9 18 17 14 16 -1 12 -12 -10 -6 20 -5 -8 -7 -20 -9 -22
right_child=1 -3 -4 5 8 6 7 15 13 -11 11 -13 -14 -15 -16 -17 -18 -19 19 -21 21 -23
leaf_value=0.063223921447745551 0.057644143117943039 0.024592843627160257 -0.074760422628510417 -0.016643947141363021 0.016318823947881502 -0.062755051846714108 -0.011429098504009416 -0.042489187445080262 -0.014518227753515309 -0.030101544373768982 0.033040827994313314 0.059689938739201212 -0.0054075371368862198 0.023539072321699651 0.058760634760338486 -0.014788672179364871 0.017534941934188242 0.0098377995218862681 -0.028326233738836346 -0.064683531721243082 -0.059619563964426595 -0.057550746006469172
leaf_weight=5.5119291096925762 3.5819368436932555 6.2162460833787909 4.5712338685989371 4.3639003857970255 3.8590188771486309 4.0921210646629351 3.6635293364524859 2.8640248104929906 5.6471447646617872 6.8989360630512229 6.9552748948335665 6.2752554267644873 4.0750790238380432 3.9725246876478195 3.3355831056833267 2.712017446756362 5.6098732203245163 5.0900792628526688 3.9179804027080536 3.0587185770273209 2.571478046476841 2.6678040623664856
leaf_count=34 17 27 25 29 22 28 21 21 27 38 31 34 20 23 19 14 26 27 26 22 20 24
internal_value=0.000107673 -0.0192372 -0.0241319 -0.0196022 0.0303122 -0.025426 -0.0334903 -0.023529 0.0160874 -0.0107826 0.0407944 0.0336504 0.0188364 0.00119786 0.0359958 -0.0433313 0.00258039 0.000937253 -0.0511013 -0.044266 -0.0528839 -0.0585661
internal_weight=101.512 61.8799 55.6636 51.0924 39.6318 47.5105 30.6378 19.5689 16.8143 16.8727 22.8175 17.3056 11.0304 9.61967 7.1946 10.8153 9.97377 8.75361 11.0688 6.9767 8.10331 5.23928
internal_count=575 365 338 313 210 296 203 127 91 93 119 85 51 50 41 79 55 48 76 48 65 44
is_linear=0
shrinkage=0.05


Tree=27
num_leaves=21
num_cat=0
split_feature=2 8 4 3 4 9 6 6 3 1 7 1 6 3 6 6 1 7 1 1
split_gain=21.7372 4.89788 4.77308 8.39848 2.2054 1.86152 3.55153 1.75722 2.02469 1.92639 2.89056 2.99503 2.28316 2.69853 1.47019 2.50696 1.38634 1.0367 0.123588 0.0878787
threshold=1.0000000180025095e-35 83.500000000000014 1.5000000000000002 16.500000000000004 1.0000000180025095e-35 1.5000000000000002 300.50000000000006 219.50000000000003 32.250000000000007 192.00000000000003 13.931250000000002 655.50000000000011 414.00000000000006 29.349558823529414 156.50000000000003 483.50000000000006 614.00000000000011 18.768750000000004 122.50000000000001 496.50000000000006
decision_type=2 2 2 2 2 2 2 2 2 2 2 2 2 2 2 2 2 2 2 2
left_child=4 2 3 -2 14 -6 -7 8 17 18 11 12 13 -11 -1 16 -16 -5 -9 -14
right_child=1 -3 -4 7 5 6 -8 9 -10 10 -12 -13 19 -15 15 -17 -18 -19 -20 -21
leaf_value=0.062423807837506708 0.054387848564602582 0.021726182606646095 -0.07322439806925439 -0.015977326284772036 0.046713771086198001 0.038112563114703242 -0.015152383570310048 -0.062660730757740493 -0.033312852640963828 0.0044166546592479218 -0.055877427138826256 -0.050448007772795803 0.023381270084513239 -0.060631861168912775 0.031641828448924846 0.057854761030765312 -0.0051368697543743872 0.016576628532911343 -0.048697094105977785 0.011780231860526284
leaf_weight=5.308600693941119 3.6059213876724234 6.7180608659982672 4.4371718540787688 4.3198242560029048 3.6986674219369897 5.2732214629650116 7.6979763060808182 3.5277994424104717 6.5669603198766699 3.6299139261245781 5.8450149074196807 4.4957944154739371 3.3575792387127876 2.8432261943817139 6.9010565280914324 6.1537147760391226 4.0753028839826584 5.636762946844101 2.8767771571874619 3.1770571172237396
leaf_count=34 17 29 25 29 20 32 39 24 37 23 39 35 20 21 31 34 20 26 20 20
internal_value=9.77167e-05 -0.0185485 -0.0235295 -0.019109 0.0291994 0.0154238 0.00650158 -0.0248359 -0.0117617 -0.0320968 -0.0254335 -0.0152672 -0.00310792 -0.0241549 0.0394334 0.0323086 0.0179866 0.00245258 -0.0563886 0.017741
internal_weight=100.146 61.0379 54.3198 49.8826 39.1085 16.6699 12.9712 46.2767 16.5235 29.7532 23.3486 17.5036 13.0078 6.47314 22.4387 17.1301 10.9764 9.95659 6.40458 6.53464
internal_count=575 365 336 311 210 91 71 294 92 202 158 119 84 44 119 85 51 55 44 40
is_linear=0
shrinkage=0.05


Tree=28
num_leaves=24
num_cat=0
split_feature=2 0 8 7 7 1 1 3 6 6 5 6 6 1 6 1 1 3 7 6 1 1 8
split_gain=19.9345 4.58702 4.48762 2.41357 2.96458 2.10647 4.27151 4.57456 1.9962 3.18089 1.77743 1.39441 1.04832 1.87865 2.54735 1.04849 0.669442 0.317306 0.193755 0.168031 0.0334702 0.00340434 0.000197823
threshold=1.0000000180025095e-35 2.5000000000000004 83.500000000000014 7.977100000000001 15.372900000000001 531.50000000000011 449.00000000000006 14.250000000000002 176.50000000000003 616.50000000000011 1.5000000000000002 55.500000000000007 540.50000000000011 92.500000000000014 337.50000000000006 315.50000000000006 221.50000000000003 19.500000000000004 29.850000000000005 350.50000000000006 418.50000000000006 706.50000000000011 56.500000000000007
decision_type=2 2 2 2 2 2 2 2 2 2 2 2 2 2 2 2 2 2 2 2 2 2 2
left_child=1 11 5 -3 -5 6 7 -2 -7 17 -6 -1 13 -9 16 -16 -15 -10 20 -19 -13 -21 -20
right_child=2 3 -4 4 10 8 -8 12 9 -11 -12 18 -14 14 15 -17 -18 19 22 21 -22 -23 -24
leaf_value=0.019138888636014609 0.035753204291562084 0.03628799260355195 0.02060332454455651 -0.026113238578648404 0.043135707903339385 -0.010776673372468522 0.022156510733609226 0.0093277195544655672 -0.071706713059395549 0.0025473633606457329 -0.0037658924175869215 0.045069882737011194 -0.050715942102465709 -0.031698886000643377 -0.027755218469089099 0.012863772019984138 -0.058555378916876788 -0.043196154106428179 0.060797034345451167 -0.058906829493936844 0.051798573429762795 -0.0563167435357117 0.061368734241847279
leaf_weight=3.5176238566637066 2.9019382148981121 7.12085694074631 6.7296668440103522 5.9846069961786261 4.1504937410354596 5.7217801734805134 6.2585739493370047 3.2569937482476297 2.9197191894054404 2.7383447736501685 3.9353322237730026 3.0366536974906904 5.1367977708578101 3.7623781710863131 3.2068661004304877 3.1485399752855301 6.0540403798222542 3.0457932949066144 2.904545471072197 3.2859537675976753 4.7220473289489746 2.0665077343583107 3.1587001979351044
leaf_count=23 13 31 29 25 19 32 33 20 17 14 21 20 27 25 27 18 39 23 20 27 30 21 21
internal_value=8.77322e-05 0.0281736 -0.0178784 0.0125683 0.000564089 -0.0227186 -0.0151212 -0.0236151 -0.0356738 -0.0458085 0.0203089 0.0472453 -0.0306283 -0.0253173 -0.0322947 -0.00763211 -0.048262 -0.057508 0.0543983 -0.0525717 0.0491651 -0.0579068 0.0610949
internal_weight=98.7648 38.5309 60.2339 21.1913 14.0704 53.5042 33.7261 27.4676 19.7781 14.0563 8.08583 17.3396 24.5656 19.4288 16.1718 6.35541 9.81642 11.318 13.8219 8.39825 7.7587 5.35246 6.06325
internal_count=575 210 365 96 65 336 202 169 134 102 40 114 156 129 109 45 64 88 91 71 50 48 41
is_linear=0
shrinkage=0.05


Tree=29
num_leaves=24
num_cat=0
split_feature=2 0 4 3 7 1 4 9 7 1 1 1 7 7 1 3 3 3 7 9 1 7 1
split_gain=18.2668 4.41635 4.21197 13.7324 2.70348 3.22371 2.49817 2.43726 2.38006 2.13138 2.11549 1.92607 1.8121 1.38384 1.15645 0.957494 0.760017 0.493353 0.431027 0.223146 0.0776906 0.00343225 0.000649917
threshold=1.0000000180025095e-35 2.5000000000000004 1.5000000000000002 14.250000000000002 26.268750000000004 477.00000000000006 1.0000000180025095e-35 1.0000000180025095e-35 13.208350000000001 415.50000000000006 192.00000000000003 531.50000000000011 52.277100000000011 7.910400000000001 786.50000000000011 27.500000000000004 27.500000000000004 21.500000000000004 7.977100000000001 1.5000000000000002 109.50000000000001 22.441650000000003 667.00000000000011
decision_type=2 2 2 2 2 2 2 2 2 2 2 2 2 2 2 2 2 2 2 2 2 2 2
left_child=1 15 3 -2 7 12 16 -5 10 -8 20 13 -6 -12 18 17 -3 -1 -13 -17 -9 -10 -21
right_child=2 6 -4 4 5 -7 9 8 21 -11 11 14 -14 -15 -16 19 -18 -19 -20 22 -22 -23 -24
leaf_value=0.045797143273637514 0.08872291732913512 0.037501284744220445 -0.063936299949630793 0.0086261396627885754 -0.0089274472366939195 -0.027859174442076987 0.01745828648986731 -0.048004665062703983 -0.060157378586214977 -0.031110869681785031 -0.018003376600596692 -0.033658494238311805 0.035051731521299472 0.019282150228902339 -0.0062650578776307564 0.044927360572926504 0.012123521874798031 0.018543745873393427 -0.059127622053646404 0.060493488346449568 -0.060075042727331364 -0.062602984206185985 0.061466635806556313
leaf_weight=3.173468932509425 3.1044158190488806 7.0089995861053485 4.4624310731887809 4.1205754354596129 4.1230618357658404 7.4327285885810843 4.3252928704023343 2.9786078557372155 3.0329934805631629 4.7278660088777542 6.3186102062463778 3.5224234908819181 5.4228161126375198 4.1054574176669121 2.5835907161235809 3.1730133444070825 5.0947056859731674 3.4832122027873993 3.1437986642122269 3.9920857623219463 2.4131458178162575 2.7223659008741379 3.0088069885969162
leaf_count=21 13 30 26 26 20 38 20 20 24 23 39 27 23 26 18 22 23 23 26 28 20 19 20
internal_value=7.95619e-05 0.0271657 -0.0172172 -0.0134283 -0.0195362 -0.00316863 0.01196 -0.0274894 -0.0323178 -0.00790617 -0.0256599 -0.0180557 0.0160562 -0.00331869 -0.0346635 0.04628 0.0268192 0.0315364 -0.0456698 0.0559266 -0.0534069 -0.0613142 0.0609117
internal_weight=97.4745 37.9875 59.487 55.0246 51.9202 16.9786 21.1569 34.9416 30.821 9.05316 25.0656 19.6739 9.54588 10.4241 9.24981 16.8306 12.1037 6.65668 6.66622 10.1739 5.39175 5.75536 7.00089
internal_count=575 210 365 339 326 81 96 245 219 43 176 136 43 65 71 114 53 44 53 70 40 43 48
is_linear=0
shrinkage=0.05


Tree=30
num_leaves=22
num_cat=0
split_feature=2 0 7 3 6 6 6 3 6 6 7 6 8 6 6 1 7 6 1 7 4
split_gain=11.9363 8.69941 6.16705 4.05433 3.51396 3.54942 3.39298 5.52106 3.27087 4.69848 2.75945 1.89057 1.47323 0.596062 1.59685 0.43369 0.217721 0.169753 0.0159065 0.000912887 0.000178342
threshold=1.0000000180025095e-35 2.5000000000000004 7.7354000000000012 6.5000000000000009 621.50000000000011 237.50000000000003 55.500000000000007 32.250000000000007 266.50000000000006 441.50000000000006 7.7979000000000012 55.500000000000007 13.000000000000002 535.50000000000011 414.00000000000006 655.50000000000011 15.620850000000003 353.50000000000006 325.50000000000006 29.850000000000005 1.0000000180025095e-35
decision_type=2 2 2 2 2 2 2 2 2 2 2 2 2 2 2 2 2 2 2 2 2
left_child=1 11 17 -4 5 6 -5 -8 -3 -10 -7 -1 13 14 15 18 -13 -2 -12 -18 -21
right_child=2 8 3 4 -6 10 7 -9 9 -11 12 16 -14 -15 -16 -17 19 -19 -20 20 -22
leaf_value=0.012668151289563804 -0.063658283474306479 0.037631121254164859 0.035411842568782707 -0.039568819655655639 0.026177729290241283 0.0083369833664468703 0.044644953655571508 -0.025040110446872932 -0.042333223568803417 0.016550629496941367 -0.057842094375457023 0.044945181216582385 -0.010609887929180183 -0.061100635014958028 -0.016324525938721905 -0.034044228742602482 0.06093425135550861 -0.048862430227348833 -0.063051245366921901 0.059612150234124223 0.060175672138932837
leaf_weight=3.0946013927459708 5.0297244712710363 3.6902096569538143 4.2821371406316748 4.3057717233896247 4.538861855864524 3.5812132507562664 6.162639379501341 5.2756757959723473 7.4132118076086027 6.2386565059423447 3.0800147578120285 3.0894853770732871 3.7059808969497672 4.4594734087586394 4.5929241627454749 2.1430746391415596 3.5038503706455213 3.1542618274688721 2.7956614345312119 2.6909484788775444 2.9357771724462509
leaf_count=21 33 17 18 21 22 26 33 29 34 29 28 21 17 33 38 20 24 21 18 20 21
internal_value=-0.00399453 0.0201164 -0.0177823 -0.011062 -0.01552 -0.0202394 -0.00173697 0.0125042 -0.00413473 -0.0154244 -0.0321985 0.047578 -0.0391853 -0.0453887 -0.039833 -0.053298 0.0564185 -0.0579557 -0.0603206 0.0603007 0.0599062
internal_weight=89.7642 32.6567 57.1074 48.9234 44.6413 40.1024 15.7441 11.4383 17.3421 13.6519 24.3583 15.3147 20.7771 17.0711 12.6117 8.01875 12.2201 8.18399 5.87568 9.13058 5.62673
internal_count=544 187 357 303 285 263 83 62 80 63 180 107 154 137 104 66 86 54 46 65 41
is_linear=0
shrinkage=0.05


Tree=31
num_leaves=23
num_cat=0
split_feature=2 0 3 6 6 6 6 6 3 6 1 6 4 3 1 1 1 1 1 1 3 6
split_gain=10.9614 8.18414 4.7874 2.97785 4.26409 2.63624 2.64532 3.62292 4.82711 1.84776 1.83635 1.55545 4.0393 1.79507 1.78981 1.47257 1.05907 0.20927 0.00776803 0.00157396 0.000609018 0.000279314
threshold=1.0000000180025095e-35 2.5000000000000004 6.5000000000000009 266.50000000000006 441.50000000000006 651.50000000000011 154.00000000000003 55.500000000000007 32.250000000000007 55.500000000000007 748.50000000000011 399.50000000000006 1.0000000180025095e-35 36.250000000000007 572.50000000000011 516.50000000000011 164.50000000000003 738.50000000000011 353.50000000000006 838.00000000000011 27.500000000000004 179.50000000000003
decision_type=2 2 2 2 2 2 2 2 2 2 2 2 2 2 2 2 2 2 2 2 2 2
left_child=1 9 -2 -3 -5 6 7 -4 -9 -1 11 14 13 15 16 -13 -8 20 -18 -12 -11 -22
right_child=2 3 5 4 -6 -7 10 8 -10 17 19 12 -14 -15 -16 -17 18 -19 -20 -21 21 -23
leaf_value=0.012135031522012561 0.033775434855565542 0.036182498424592209 -0.041896770036223718 -0.04044595461941064 0.015688003742300585 0.019492389595420476 -0.025760995897421562 0.043406584270065017 -0.027576080060443854 0.06009074435582356 -0.059037812284800664 0.024335920046204645 -0.054261067540962077 -0.034339191726600098 -0.0055947612637159494 -0.02113148531062747 -0.059968717460090262 0.044142077641362548 -0.063497268157094 -0.060805727725409389 0.058838787846152388 0.059546612703896121
leaf_weight=3.0696772187948218 4.2655497193336478 3.6471675187349346 4.8308703899383536 7.3722205907106382 6.2522511929273605 3.6769411563873282 2.8722642362117785 5.2683058083057386 4.3916370943188667 3.2024053484201414 2.501433201134204 6.00122217833996 5.0999860092997542 2.9609533771872512 2.800300955772399 2.532220184803009 2.533696711063385 2.9415529444813719 4.0577221587300301 2.5346170365810394 2.5408765003085136 3.0870881527662277
leaf_count=21 18 17 24 34 29 17 23 28 23 23 22 36 34 20 23 21 23 20 26 19 20 23
internal_value=-0.00385878 0.019454 -0.0171497 -0.00394447 -0.0146862 -0.0213221 -0.0244238 -0.00654365 0.0111362 0.0466836 -0.032068 -0.0272063 -0.017227 -0.000795262 -0.0407091 0.0108439 -0.0510995 0.0556926 -0.0621409 -0.0599276 0.0595403 0.059227
internal_weight=88.441 32.1132 56.3277 17.2716 13.6245 52.0622 48.3852 14.4908 9.65994 14.8416 33.8944 28.8584 16.5944 11.4944 12.264 8.53344 9.46368 11.7719 6.59142 5.03605 8.83037 5.62796
internal_count=544 187 357 80 63 339 322 75 51 107 247 206 111 77 95 57 72 86 49 41 66 43
is_linear=0
shrinkage=0.05


Tree=32
num_leaves=20
num_cat=0
split_feature=2 7 6 6 3 3 6 6 6 7 4 6 8 6 6 1 6 7 1
split_gain=10.0636 5.79329 3.6065 9.58024 3.32817 3.12124 3.01719 3.20371 2.89713 2.61107 2.0652 2.05109 1.46143 0.603646 1.55758 0.437712 0.160568 0.0292376 0.0116747
threshold=1.0000000180025095e-35 7.7354000000000012 256.50000000000006 441.50000000000006 6.5000000000000009 27.500000000000004 621.50000000000011 237.50000000000003 79.500000000000014 7.7979000000000012 1.0000000180025095e-35 102.50000000000001 13.000000000000002 535.50000000000011 414.00000000000006 655.50000000000011 423.50000000000006 22.441650000000003 325.50000000000006
decision_type=2 2 2 2 2 2 2 2 2 2 2 2 2 2 2 2 2 2 2
left_child=2 16 5 -4 -3 -1 7 8 -6 -9 -5 -10 13 14 15 18 -2 -7 -11
right_child=1 4 3 10 6 17 -8 9 11 12 -12 -13 -14 -15 -16 -17 -18 -19 -20
leaf_value=0.011587445683278975 -0.062047087921689073 0.032225678991577564 -0.037082172342043938 0.055844605559420772 -0.026916958974276064 0.065806240866812887 0.024206119584834745 0.0091802079397008407 0.042897251084260422 -0.057174974438678229 0.013100938576817423 -0.0045654507096969154 -0.0088652950743451208 -0.060211091259616295 -0.01476673305736691 -0.032207566586911839 -0.047160901077246839 0.059259029377803835 -0.06178936152622997
leaf_weight=5.4652165845036524 4.9063376337289801 4.2476100325584403 7.8812621086835888 5.7215592265129072 6.4064531475305548 3.034001812338829 4.5890932232141486 3.54114702343941 4.1534397751092893 2.8662411421537453 5.5837757438421249 5.0363781601190567 3.6528300046920767 4.1922196298837653 4.4629206582903862 2.0293096378445625 2.8717453852295876 3.8932853192090988 2.6271545216441154
leaf_count=33 35 18 37 33 31 20 22 26 17 28 34 35 17 33 38 20 19 30 18
internal_value=-0.00372646 -0.0165324 0.0188135 0.00523368 -0.0100212 0.0398383 -0.014141 -0.018657 -0.00110696 -0.0303683 0.0347332 0.0168858 -0.0374304 -0.0438802 -0.0381682 -0.0520513 -0.056551 0.0621266 -0.0593818
internal_weight=87.162 55.5829 31.5791 19.1866 47.8048 12.3925 43.5572 38.9681 15.5963 23.3718 11.3053 9.18982 19.8307 16.1778 11.9856 7.52271 7.77808 6.92729 5.4934
internal_count=544 357 187 104 303 83 285 263 83 180 67 52 154 137 104 66 54 50 46
is_linear=0
shrinkage=0.05


Tree=33
num_leaves=21
num_cat=0
split_feature=2 7 6 6 3 3 6 6 6 3 7 4 6 7 6 1 1 6 7 1
split_gain=9.23316 5.49438 3.38094 8.7176 3.03825 3.03097 2.74845 2.98897 2.70387 4.51902 2.4547 1.93659 1.42499 0.701188 1.15581 2.01858 0.418985 0.164363 0.0255155 0.00940039
threshold=1.0000000180025095e-35 7.7354000000000012 256.50000000000006 441.50000000000006 27.500000000000004 6.5000000000000009 621.50000000000011 237.50000000000003 55.500000000000007 32.250000000000007 7.7979000000000012 1.0000000180025095e-35 577.00000000000011 23.725000000000005 414.00000000000006 524.50000000000011 636.50000000000011 423.50000000000006 22.441650000000003 321.50000000000006
decision_type=2 2 2 2 2 2 2 2 2 2 2 2 2 2 2 2 2 2 2 2
left_child=2 17 4 -4 -1 -3 7 8 -7 -10 -9 -5 13 14 16 -16 19 -2 -6 -12
right_child=1 5 3 11 18 6 -8 10 9 -11 12 -13 -14 -15 15 -17 -18 -19 -20 -21
leaf_value=0.011077349028600516 -0.061360664179818447 0.030755609099443373 -0.035389803675081787 0.054072589566841092 0.064966432003251653 -0.03572670251060011 0.022789734294015523 0.0086691010813220535 0.040129555231892988 -0.023107878570056074 -0.056755500723160712 0.012470286617750376 -0.0098962332184179963 -0.062777928932428215 0.0084255145045840796 -0.056023338487759734 -0.031679884095027339 -0.046060491296456341 0.058729304078731642 -0.06118298872668098
leaf_weight=5.4319091364741343 4.7179344445466986 4.2285970896482459 7.8461475521326092 5.6163142174482328 2.9223899766802788 4.1289729326963416 4.6295143365859976 3.5618788227438953 6.2392610460519773 5.1628091633319855 2.4394660145044345 5.5731320977210999 3.9938145652413359 3.5863938257098189 2.8368828445672989 2.1250177323818207 1.9979041442275045 2.7952929884195328 3.7359632402658463 2.3574092164635658
leaf_count=33 35 18 37 33 20 21 22 26 33 29 25 34 23 26 20 23 20 19 30 17
internal_value=-0.00359718 -0.0159494 0.0181506 0.00501763 0.0388279 -0.0096388 -0.0136057 -0.0179901 -0.00105836 0.0114959 -0.0294741 0.0333517 -0.0365001 -0.0434251 -0.0375215 -0.0191758 -0.0509185 -0.0556682 0.0614668 -0.0589314
internal_weight=85.927 54.8011 31.1259 19.0356 12.0903 47.2879 43.0593 38.4298 15.531 11.4021 22.8988 11.1894 19.3369 15.3431 11.7567 4.9619 6.79478 7.51323 6.65835 4.79688
internal_count=544 357 187 104 83 303 285 263 83 62 180 67 154 131 105 43 62 54 50 42
is_linear=0
shrinkage=0.05


Tree=34
num_leaves=21
num_cat=0
split_feature=2 7 8 6 6 3 3 8 7 6 7 6 6 1 3 3 1 1 6 6
split_gain=8.46955 5.21331 3.20688 2.93918 5.95441 3.10712 2.90125 5.89564 3.32265 3.23282 2.25735 2.00585 2.99713 1.65648 1.06193 0.892009 1.1042 0.66599 0.170935 0.0175584
threshold=1.0000000180025095e-35 7.7354000000000012 62.500000000000007 256.50000000000006 441.50000000000006 27.500000000000004 44.500000000000007 69.500000000000014 55.670850000000009 651.50000000000011 7.8667000000000007 237.50000000000003 132.50000000000003 467.50000000000006 29.849558823529414 28.250000000000004 524.50000000000011 431.00000000000006 486.50000000000006 491.50000000000006
decision_type=2 2 2 2 2 2 2 2 2 2 2 2 2 2 2 2 2 2 2 2
left_child=2 18 3 5 -5 -1 7 8 9 10 -3 12 -12 -6 15 16 -13 -8 -2 -16
right_child=1 6 -4 4 13 -7 17 -9 -10 -11 11 14 -14 -15 19 -17 -18 -19 -20 -21
leaf_value=0.0047415033259275508 -0.060617037722328508 0.012168295286199492 0.057565064964240999 -0.034976429014847474 0.0067393681503385748 0.06157876652228144 -0.02344764184127544 0.049762627349855898 0.030000356270652995 0.03027324515954188 -0.035752174614703598 -0.026465755762110216 0.028496201347937584 0.049346284116636795 -0.055994289697572544 -0.011294172724424047 -0.066362204734600819 -0.054032446934371529 -0.044660047766111724 -0.062313732962039396
leaf_weight=4.8330500423908287 4.6186596602201453 4.0590217709541383 4.2971497699618331 7.4493746608495739 5.3250293210148794 4.7853517234325409 3.5790546536445609 4.5193950831890097 4.3506777063012114 3.2766622453927985 3.9861861318349865 5.0261735543608683 3.3328730687499046 3.9908925220370293 2.3482829704880706 4.0782493203878403 2.6479550078511238 3.5407645329833031 2.6362446546554565 2.066416509449482
leaf_count=29 36 29 31 35 30 37 19 20 23 15 22 35 21 25 26 34 20 23 18 16
internal_value=-0.00347279 -0.0153799 0.0175102 0.0109864 -0.00165398 0.0330192 -0.00926765 -0.00399572 -0.0109033 -0.016677 -0.0222621 -0.0282125 -0.00649545 0.0249919 -0.0380441 -0.0301902 -0.040232 -0.0386578 -0.0548187 -0.0589523
internal_weight=84.7475 54.0666 30.6808 26.3837 16.7653 9.6184 46.8117 39.6919 35.1725 30.8218 27.5452 23.4861 7.31906 9.31592 16.1671 11.7524 7.67413 7.11982 7.2549 4.4147
internal_count=544 357 187 156 90 66 303 261 241 218 203 174 43 55 131 89 55 42 54 42
is_linear=0
shrinkage=0.05


Tree=35
num_leaves=24
num_cat=0
split_feature=2 8 0 4 1 1 7 1 8 7 1 1 1 6 1 6 1 6 1 7 8 7 4
split_gain=11.2382 4.85595 4.46729 3.69855 2.89519 2.05443 2.91821 1.5544 1.85904 4.58518 3.04957 1.3951 2.6281 1.44577 2.84256 1.72408 1.14386 2.95255 3.83105 1.13346 0.384127 0.274259 0.000493971
threshold=1.0000000180025095e-35 86.500000000000014 2.5000000000000004 2.5000000000000004 818.50000000000011 769.00000000000011 7.133350000000001 97.000000000000014 50.500000000000007 55.670850000000009 181.50000000000003 268.00000000000006 389.50000000000006 350.50000000000006 636.50000000000011 537.50000000000011 623.00000000000011 476.50000000000006 363.50000000000006 12.318750000000001 60.000000000000007 25.527100000000001 1.0000000180025095e-35
decision_type=2 2 2 2 2 2 2 2 2 2 2 2 2 2 2 2 2 2 2 2 2 2 2
left_child=2 3 20 4 5 6 -2 -8 9 10 -9 -12 -13 19 15 -15 17 18 -4 -14 21 -1 -23
right_child=1 -3 16 -5 -6 -7 7 8 -10 -11 11 12 13 14 -16 -17 -18 -19 -20 -21 -22 22 -24
leaf_value=0.038420324653577032 -0.062603440375571889 0.02959214010619601 -0.00020635974392139257 -0.066497668139361324 -0.059983468337469426 0.029334302351679081 0.021078373970096351 -0.060200555495367881 -0.051550841443881626 0.044634531980481118 0.019884551401917274 -0.046859353884873278 0.031125000075529426 -0.020560282789034521 -0.061166718818629395 0.02758677023882581 -0.011260701070420785 -0.015892804735594981 0.065920006730316977 -0.010988394115449669 0.033557068324128442 0.057813621764831041 0.058722318173755894
leaf_weight=2.4593961313366908 2.943196438252925 5.7276211678981772 4.365747421979906 3.7869647294282904 3.3523835316300383 2.8416032791137686 3.4488066658377639 3.5801230221986797 3.0279540866613379 3.3684341609477988 3.2128971591591862 5.1017943695187595 3.6375235393643406 4.8345309272408468 2.7427295595407486 3.0213137418031693 5.5295723825693122 4.7774187922477713 4.3956576585769653 2.8492463007569313 3.9291137158870688 3.1124795749783516 2.8788736835122108
leaf_count=20 21 26 20 21 28 20 23 30 14 17 25 37 26 35 25 17 27 21 20 19 31 27 23
internal_value=-0.000944298 -0.0140922 0.0230857 -0.0189271 -0.0151711 -0.0118036 -0.0146022 -0.0109635 -0.0140872 -0.0105804 -0.0169982 -0.0109089 -0.015368 -0.0059645 -0.0173434 -0.0020432 0.00790142 0.0157277 0.0329697 0.0126271 0.0464737 0.0524792 0.0582503
internal_weight=88.9254 57.4771 31.4483 51.7495 47.9625 44.6102 41.7685 38.8254 35.3765 32.3486 28.9802 25.4 22.1871 17.0853 10.5986 7.85584 19.0684 13.5388 8.76141 6.48677 12.3799 8.45075 5.99135
internal_count=573 384 189 358 337 309 289 268 245 231 214 184 159 122 77 52 88 61 40 45 101 70 50
is_linear=0
shrinkage=0.05


Tree=36
num_leaves=23
num_cat=0
split_feature=8 4 3 7 1 6 1 1 8 7 6 1 6 3 4 1 6 1 6 7 7 1
split_gain=5.52465 3.72652 7.40068 3.58328 3.12578 2.71106 2.43578 4.50452 2.27316 3.72614 3.33727 1.67168 1.57632 2.61726 1.41692 1.07206 2.0713 1.93413 0.86103 0.703013 0.479718 0.161314
threshold=86.500000000000014 2.5000000000000004 8.5000000000000018 15.372900000000001 488.50000000000006 450.00000000000006 389.50000000000006 765.00000000000011 50.500000000000007 83.31665000000001 494.50000000000006 268.00000000000006 344.50000000000006 29.349558823529414 1.0000000180025095e-35 353.50000000000006 653.50000000000011 618.50000000000011 399.50000000000006 7.7979000000000012 33.760400000000011 198.50000000000003
decision_type=2 2 2 2 2 2 2 2 2 2 2 2 2 2 2 2 2 2 2 2 2 2
left_child=1 2 -1 5 -2 6 18 12 9 10 11 -5 13 -8 -13 -7 17 -17 19 -4 -12 -21
right_child=4 -3 3 8 -6 15 7 -9 -10 -11 20 14 -14 -15 -16 16 -18 -19 -20 21 -22 -23
leaf_value=0.066158404330952034 0.0649400611049816 -0.042183937358289847 -0.028087120818736155 0.047066039756841149 0.0051591446887186872 0.027307789558559684 0.047281359591716046 -0.064625758887790291 -0.020420677147483107 0.064479452135583384 -0.010338913878136563 -0.0095926275439678407 -0.023850411091611432 -0.010557023704274153 0.029349992132809394 -0.038437136666562503 0.028920245172061661 0.01074729333787095 -0.016025114368247769 -0.067922106644454638 -0.038058378319463536 -0.051338560090717224
leaf_weight=3.7849877849221221 4.6330737024545652 6.2375870943069449 2.3873662836849707 4.1550016999244788 4.1410089135169983 3.2281043156981459 3.4869385585188848 3.2242540568113318 5.7002880424261084 3.2480135336518279 3.2906081825494757 4.9030968099832517 3.9385277703404427 4.4547387510538101 4.4609590172767639 4.9268530756235105 3.1916126236319533 3.3632786944508553 2.2375894933938971 3.1678618751466274 2.9692278578877449 2.7302805930376053
leaf_count=19 26 36 19 26 22 18 21 26 32 24 24 31 32 31 30 30 14 26 15 27 20 24
internal_value=-0.000916373 -0.00509248 -0.00191661 -0.00564736 0.0367259 -0.0152585 -0.0250791 -0.0122127 0.00784818 0.0148461 0.00669551 0.0206712 0.00201199 0.014838 0.00895932 0.00185091 -0.00530632 -0.0184832 -0.0435469 -0.0509795 -0.0234871 -0.0602455
internal_weight=87.8613 79.0872 72.8496 69.0646 8.77408 40.3374 25.6276 15.1045 28.7272 23.0269 19.7789 13.5191 11.8802 7.94168 9.36406 14.7098 11.4817 8.29013 10.5231 8.28551 6.25984 5.89814
internal_count=573 525 489 470 48 283 195 110 187 155 131 87 84 52 61 88 70 56 85 70 44 51
is_linear=0
shrinkage=0.05


Tree=37
num_leaves=23
num_cat=0
split_feature=2 0 8 4 1 1 7 1 1 1 1 1 1 6 1 6 1 1 0 8 1 4
split_gain=10.0969 4.12604 4.01713 3.26082 2.72103 1.89667 2.75129 1.19943 2.83692 2.13843 2.51164 1.66594 2.4955 2.48108 1.01381 2.64014 3.30489 0.870305 0.746356 0.393386 0.274816 0.00020465
threshold=1.0000000180025095e-35 2.5000000000000004 86.500000000000014 2.5000000000000004 818.50000000000011 769.00000000000011 7.133350000000001 221.50000000000003 389.50000000000006 181.50000000000003 92.500000000000014 531.50000000000011 473.50000000000006 350.50000000000006 623.00000000000011 476.50000000000006 363.50000000000006 640.00000000000011 2.5000000000000004 60.000000000000007 685.50000000000011 1.0000000180025095e-35
decision_type=2 2 2 2 2 2 2 2 2 2 2 2 2 2 2 2 2 2 2 2 2 2
left_child=1 19 3 4 5 6 -2 9 18 10 -8 12 -10 -13 15 16 -3 -15 -9 20 21 -1
right_child=2 14 -4 -5 -6 -7 7 8 11 -11 -12 13 -14 17 -16 -17 -18 -19 -20 -21 -22 -23
leaf_value=0.057262041644349143 -0.061761126662130239 0.00077132005755043581 0.026239805501574443 -0.063441285610226439 -0.05928433816721667 0.028337910601606148 0.022563366726139303 -0.029126690559105214 -0.010873860193519096 0.039307071851890342 -0.03460224405944274 0.0058129185025747963 0.042481829462950982 -0.021247496251312128 -0.01036790828900705 -0.014836334048887713 0.06254685639012364 -0.061067216947587225 -0.061155098328630059 0.032068259796081966 0.037129862733322971 0.057864200101184142
leaf_weight=3.1584661379456538 2.7984213009476653 4.3453683406114596 5.73204581439495 3.6508018150925627 3.1491577550768843 2.8413311243057242 3.3591567575931531 4.5073979422450092 5.7792118340730685 3.0316883027553558 4.4893562458455563 5.0092595592141134 3.5300725996494293 2.5380789935588837 5.5023219883441916 4.749933421611785 4.31485216319561 2.9871974363923073 3.0495515614748001 3.7784497886896125 2.3221655935049057 2.5503529757261276
leaf_count=29 21 20 26 21 28 20 22 29 33 20 35 34 21 22 27 21 20 27 25 31 19 22
internal_value=-0.000882693 0.0221841 -0.0134358 -0.0179196 -0.0143889 -0.0111698 -0.0139024 -0.0104039 -0.0159809 0.00364137 -0.0101354 -0.00605265 0.00935857 -0.0196714 0.00770459 0.0151199 0.0315502 -0.0427757 -0.0420515 0.0453726 0.051632 0.057531
internal_weight=87.1746 30.7219 56.4527 50.7207 47.0699 43.9207 41.0794 38.281 27.4008 10.8802 7.84851 19.8438 9.30928 10.5345 18.9125 13.4102 8.66022 5.52528 7.55695 11.8094 8.03098 5.70882
internal_count=573 189 384 358 337 309 289 268 191 77 57 137 54 83 88 61 40 49 54 101 70 51
is_linear=0
shrinkage=0.05


Tree=38
num_leaves=21
num_cat=0
split_feature=2 0 8 9 1 6 1 7 1 3 7 6 1 6 6 6 8 7 1 3
split_gain=9.25543 3.94473 3.6574 2.27586 1.9451 4.55053 2.67938 3.11795 1.95689 1.96319 2.103 1.47075 1.28719 0.950062 1.13825 0.940881 0.392616 0.319478 0.278758 0.000733937
threshold=1.0000000180025095e-35 2.5000000000000004 86.500000000000014 1.0000000180025095e-35 221.50000000000003 604.50000000000011 181.50000000000003 25.527100000000001 400.50000000000006 23.500000000000004 7.8916500000000012 390.00000000000006 738.50000000000011 294.50000000000006 439.50000000000006 311.50000000000006 60.000000000000007 25.527100000000001 685.50000000000011 28.250000000000004
decision_type=2 2 2 2 2 2 2 2 2 2 2 2 2 2 2 2 2 2 2 2
left_child=1 16 3 11 6 8 7 -5 17 -10 -11 -2 15 -3 -15 -12 18 -6 19 -1
right_child=2 13 -4 4 5 -7 -8 -9 9 10 12 -13 -14 14 -16 -17 -18 -19 -20 -21
leaf_value=0.057762320454876448 0.018365828583831224 0.025821939846412036 0.024891354718295101 -0.047638413541568947 -0.051689688535924164 0.018301925890005493 0.034612083091612809 0.017972607666142056 -0.05802845456060849 0.01530040165668298 -0.00099606226556304164 -0.022469206606331334 -0.058024089865732591 -0.015301043898731749 0.013607987599289335 -0.035661526821545192 0.031188445338287525 -0.074052096480184723 0.036241824073306401 0.056596078099434101
leaf_weight=2.4184015244245547 6.4387411996722204 5.0848459005355862 5.7402204573154441 4.3648028299212438 4.33411772549153 4.3355795294046393 3.1440739408135414 3.0944817289710045 4.3593081533908871 3.3001729473471633 3.6436780095100385 3.3534357994794846 3.0179890803992748 6.2196514606475812 7.5239341706037521 4.2295314185321331 3.6929877772927284 2.5291404575109482 2.2616658434271812 3.0508507415652275
leaf_count=21 39 24 26 39 38 22 21 16 30 26 22 21 30 30 34 39 31 15 19 30
internal_value=-0.000855601 0.0214206 -0.0129144 -0.0172421 -0.0224893 -0.029043 -0.00410185 -0.0204197 -0.03712 -0.0286807 -0.0196657 0.00438143 -0.0302609 0.00735691 0.000525223 -0.0196185 0.0445998 -0.0599303 0.0510063 0.0571118
internal_weight=86.1376 30.2523 55.8853 50.1451 40.3529 29.7495 10.6034 7.45928 25.4139 18.5507 14.1914 9.79218 10.8912 18.8284 13.7436 7.87321 11.4239 6.86326 7.73092 5.46925
internal_count=573 189 384 358 298 222 76 55 200 147 117 60 91 88 64 61 101 53 70 51
is_linear=0
shrinkage=0.05


Tree=39
num_leaves=24
num_cat=0
split_feature=2 0 4 3 1 9 3 1 1 6 3 6 7 6 7 1 6 1 6 4 3 3 6
split_gain=8.47835 3.77433 3.45963 5.85 2.96545 2.97894 2.20283 1.81737 2.13551 1.52679 1.27601 1.06338 1.87616 1.25818 1.25944 0.911533 2.45973 3.04906 0.553725 0.382603 0.304901 0.328729 0.00054075
threshold=1.0000000180025095e-35 2.5000000000000004 2.5000000000000004 14.250000000000002 818.50000000000011 1.0000000180025095e-35 23.500000000000004 135.00000000000003 649.50000000000011 518.00000000000011 29.349558823529414 93.500000000000014 11.750000000000002 476.50000000000006 7.7625000000000011 623.00000000000011 476.50000000000006 363.50000000000006 423.50000000000006 1.0000000180025095e-35 24.250000000000004 43.500000000000007 164.50000000000003
decision_type=2 2 2 2 2 2 2 2 2 2 2 2 2 2 2 2 2 2 2 2 2 2 2
left_child=1 20 3 -2 5 10 9 -8 11 -7 -5 -9 13 14 -13 16 17 -3 -10 -14 -1 22 -22
right_child=2 15 -4 4 -6 6 7 8 18 -11 -12 12 19 -15 -16 -17 -18 -19 -20 -21 21 -23 -24
leaf_value=0.032598354203652612 0.063359745238406304 0.00055537504767391417 -0.060519480522796265 0.039947587371521757 -0.059032286285256641 -0.059798228008281065 0.022964237427077976 -0.0026625929257132492 0.00090925196301313823 -0.010921031532381812 0.0015714400737350594 -0.060096870742348388 -0.063162437547899658 0.0060765631405500196 -0.010350193200187419 -0.010162854112326689 -0.014776176185195803 0.060265542378872786 0.034598867352308126 -0.038223884479738734 0.056418961771882152 0.03348078568085696 0.057456460258904045
leaf_weight=3.903802342712881 2.6385301649570456 4.3212397843599337 3.5018700398504725 3.3643121719360334 3.2745431251823893 4.3351035788655272 3.5968383923172977 5.2587215378880563 3.1760767064988604 2.5303015559911728 6.0816008448600769 2.1616112999618036 2.9354956448078147 4.1255058869719505 3.0925480909645557 5.4750671833753577 4.7495293617248526 4.2317336201667786 1.9800389967858789 3.2304633110761642 2.4799091815948486 2.1236915737390518 2.5446001663804054
leaf_count=33 12 20 21 19 30 38 24 26 27 16 37 19 22 27 28 27 21 20 16 22 25 20 23
internal_value=-0.000829894 0.0206534 -0.0124217 -0.00916901 -0.0130631 -0.00978141 -0.0162704 -0.0103442 -0.0149592 -0.0417841 0.0152397 -0.0220983 -0.028673 -0.0145896 -0.0308165 0.00700865 0.0140761 0.030098 0.0138467 -0.0500967 0.0438362 0.0499735 0.0569444
internal_weight=85.1131 29.8296 55.2836 51.7817 49.1432 45.8686 36.4227 29.5573 25.9605 6.86541 9.44591 20.8043 15.5456 9.37967 5.25416 18.7776 13.3025 8.55297 5.15612 6.16596 11.052 7.1482 5.02451
internal_count=573 189 384 363 351 321 265 211 187 54 56 144 118 74 47 88 61 40 43 44 101 68 48
is_linear=0
